booster[0]:
0:[f3<18.4749985] yes=1,no=2,missing=1
	1:[f1<711] yes=3,no=4,missing=3
		3:[f1<195] yes=7,no=8,missing=7
			7:leaf=-0.178770959
			8:[f12<0.875] yes=15,no=16,missing=15
				15:[f5<3.55000019] yes=19,no=20,missing=19
					19:[f14<18.5] yes=23,no=24,missing=23
						23:leaf=0.157894731
						24:leaf=0.734283268
					20:leaf=0.157894731
				16:leaf=0.055555556
		4:[f11<27.5] yes=9,no=10,missing=9
			9:leaf=0.157894731
			10:leaf=-0.172582611
	2:[f3<24.5649986] yes=5,no=6,missing=5
		5:[f5<1.61000001] yes=11,no=12,missing=11
			11:leaf=-0.158385098
			12:[f10<3.5] yes=17,no=18,missing=17
				17:[f1<198.5] yes=21,no=22,missing=21
					21:[f0<79] yes=25,no=26,missing=25
						25:leaf=0.157894731
						26:leaf=-0.105263166
					22:leaf=0.346153855
				18:leaf=-0.1460177
		6:[f12<0.305000007] yes=13,no=14,missing=13
			13:leaf=0.0263157915
			14:leaf=-0.184351921
booster[1]:
0:[f5<5.99499989] yes=1,no=2,missing=1
	1:[f4<5.84000015] yes=3,no=4,missing=3
		3:[f4<4.75500011] yes=7,no=8,missing=7
			7:leaf=-0.183958143
			8:[f0<334.5] yes=9,no=10,missing=9
				9:leaf=0.0263157915
				10:leaf=-0.12328767
		4:leaf=0.157894731
	2:[f1<1483] yes=5,no=6,missing=5
		5:leaf=0.705179214
		6:leaf=-0.165898621
booster[2]:
0:[f8<324.5] yes=1,no=2,missing=1
	1:leaf=0.712413251
	2:[f11<15.5] yes=3,no=4,missing=3
		3:[f1<333.5] yes=5,no=6,missing=5
			5:leaf=-0.142857134
			6:leaf=0.0263157915
		4:leaf=-0.185982525
booster[3]:
0:[f7<128.5] yes=1,no=2,missing=1
	1:[f1<612] yes=3,no=4,missing=3
		3:leaf=-0.1460177
		4:[f3<22.3099995] yes=7,no=8,missing=7
			7:leaf=0.697452188
			8:leaf=-0.129629627
	2:[f6<491.5] yes=5,no=6,missing=5
		5:[f7<161.5] yes=9,no=10,missing=9
			9:[f0<264.5] yes=13,no=14,missing=13
				13:[f11<56] yes=21,no=22,missing=21
					21:leaf=-0.105263166
					22:leaf=0.518518507
				14:leaf=-0.17128028
			10:[f6<377.5] yes=15,no=16,missing=15
				15:leaf=-0.185756788
				16:[f15<0.5] yes=23,no=24,missing=23
					23:[f2<41.6800003] yes=25,no=26,missing=25
						25:leaf=0.240740746
						26:leaf=-0.129629627
					24:leaf=-0.169811323
		6:[f3<13.7749996] yes=11,no=12,missing=11
			11:[f1<725] yes=17,no=18,missing=17
				17:leaf=0.0263157915
				18:leaf=0.461538464
			12:[f1<1305] yes=19,no=20,missing=19
				19:leaf=-0.139175251
				20:leaf=0.0263157915
booster[4]:
0:[f11<465] yes=1,no=2,missing=1
	1:[f0<486.5] yes=3,no=4,missing=3
		3:[f11<302.5] yes=7,no=8,missing=7
			7:leaf=-0.186306939
			8:[f2<33.6100006] yes=13,no=14,missing=13
				13:leaf=-0.151162803
				14:[f0<353.5] yes=15,no=16,missing=15
					15:leaf=0.289473683
					16:leaf=-0.105263166
		4:[f4<5.34000015] yes=9,no=10,missing=9
			9:leaf=0.461538464
			10:leaf=-0.12328767
	2:[f3<20.1150017] yes=5,no=6,missing=5
		5:leaf=-0.129629627
		6:[f1<1501] yes=11,no=12,missing=11
			11:leaf=0.157894731
			12:leaf=0.666666627
booster[5]:
0:[f3<18.4749985] yes=1,no=2,missing=1
	1:[f1<747] yes=3,no=4,missing=3
		3:[f1<195] yes=7,no=8,missing=7
			7:leaf=-0.167713821
			8:[f12<0.875] yes=15,no=16,missing=15
				15:[f1<710.5] yes=21,no=22,missing=21
					21:[f5<3.67000008] yes=27,no=28,missing=27
						27:leaf=0.382961303
						28:leaf=0.0358119793
					22:leaf=0.037049517
				16:[f3<10.9099998] yes=23,no=24,missing=23
					23:leaf=-0.105922684
					24:leaf=0.195948437
		4:[f1<902.5] yes=9,no=10,missing=9
			9:[f2<13.5100002] yes=17,no=18,missing=17
				17:leaf=0.186592847
				18:leaf=-0.131822824
			10:leaf=-0.17094627
	2:[f3<24.5649986] yes=5,no=6,missing=5
		5:[f5<1.61000001] yes=11,no=12,missing=11
			11:leaf=-0.146064818
			12:[f10<3.5] yes=19,no=20,missing=19
				19:[f2<35.8849983] yes=25,no=26,missing=25
					25:[f1<212.5] yes=29,no=30,missing=29
						29:leaf=-0.116745621
						30:leaf=0.216033652
					26:leaf=0.331760973
				20:leaf=-0.135745704
		6:[f12<0.305000007] yes=13,no=14,missing=13
			13:leaf=0.035446316
			14:leaf=-0.174127072
booster[6]:
0:[f4<5.83500004] yes=1,no=2,missing=1
	1:[f5<4.95499992] yes=3,no=4,missing=3
		3:[f0<45.5] yes=7,no=8,missing=7
			7:[f6<44.5] yes=13,no=14,missing=13
				13:leaf=-0.143360779
				14:leaf=0.0567209311
			8:leaf=-0.176032037
		4:[f11<330.5] yes=9,no=10,missing=9
			9:leaf=-0.121952951
			10:leaf=0.128963411
	2:[f1<1483] yes=5,no=6,missing=5
		5:[f6<541.5] yes=11,no=12,missing=11
			11:leaf=0.385858864
			12:leaf=0.00767398207
		6:leaf=-0.15673162
booster[7]:
0:[f8<324.5] yes=1,no=2,missing=1
	1:leaf=0.375174463
	2:[f12<0.114999995] yes=3,no=4,missing=3
		3:[f0<162.5] yes=5,no=6,missing=5
			5:leaf=-0.130993173
			6:leaf=0.0457709879
		4:leaf=-0.17607826
booster[8]:
0:[f7<128.5] yes=1,no=2,missing=1
	1:[f1<710.5] yes=3,no=4,missing=3
		3:[f3<10.0900002] yes=7,no=8,missing=7
			7:leaf=-0.132799953
			8:leaf=0.0217511449
		4:[f3<22.3099995] yes=9,no=10,missing=9
			9:[f11<27.5] yes=13,no=14,missing=13
				13:leaf=0.120430298
				14:leaf=0.383282185
			10:leaf=-0.118099503
	2:[f1<589.5] yes=5,no=6,missing=5
		5:leaf=-0.175399363
		6:[f3<19.8150005] yes=11,no=12,missing=11
			11:[f11<60] yes=15,no=16,missing=15
				15:[f13<4.51499987] yes=19,no=20,missing=19
					19:leaf=-0.150800899
					20:leaf=0.297899187
				16:[f12<1.71500003] yes=21,no=22,missing=21
					21:leaf=0.400041193
					22:leaf=0.0414485745
			12:[f6<494.5] yes=17,no=18,missing=17
				17:leaf=-0.170536146
				18:[f0<397] yes=23,no=24,missing=23
					23:leaf=0.0409744233
					24:leaf=-0.117147774
booster[9]:
0:[f11<465] yes=1,no=2,missing=1
	1:[f0<486.5] yes=3,no=4,missing=3
		3:[f11<302.5] yes=7,no=8,missing=7
			7:leaf=-0.176203832
			8:[f4<7.16499996] yes=13,no=14,missing=13
				13:leaf=-0.140733972
				14:[f0<353.5] yes=15,no=16,missing=15
					15:leaf=0.247480795
					16:leaf=-0.0939920321
		4:[f4<5.34000015] yes=9,no=10,missing=9
			9:leaf=0.325873077
			10:leaf=-0.113006368
	2:[f3<20.1150017] yes=5,no=6,missing=5
		5:leaf=-0.117609881
		6:[f8<1879.5] yes=11,no=12,missing=11
			11:leaf=0.0311181452
			12:leaf=0.390138447
booster[10]:
0:[f3<19.0499992] yes=1,no=2,missing=1
	1:[f1<747] yes=3,no=4,missing=3
		3:[f1<195] yes=7,no=8,missing=7
			7:leaf=-0.160125434
			8:[f12<0.88499999] yes=15,no=16,missing=15
				15:[f5<3.67000008] yes=23,no=24,missing=23
					23:[f14<18.5] yes=27,no=28,missing=27
						27:leaf=0.0614393465
						28:leaf=0.282846719
					24:leaf=0.0271398164
				16:[f0<259.5] yes=25,no=26,missing=25
					25:leaf=-0.101605758
					26:leaf=0.173129424
		4:[f1<902.5] yes=9,no=10,missing=9
			9:[f2<13.5100002] yes=17,no=18,missing=17
				17:leaf=0.170272395
				18:leaf=-0.121959701
			10:leaf=-0.162952289
	2:[f12<0.324999988] yes=5,no=6,missing=5
		5:[f13<23.2649994] yes=11,no=12,missing=11
			11:[f4<2.49000001] yes=19,no=20,missing=19
				19:leaf=-0.129794896
				20:leaf=0.0347583257
			12:leaf=0.211587608
		6:[f3<22.7600002] yes=13,no=14,missing=13
			13:[f14<41.5] yes=21,no=22,missing=21
				21:leaf=0.0886784047
				22:leaf=-0.115329377
			14:leaf=-0.166993916
booster[11]:
0:[f4<5.83500004] yes=1,no=2,missing=1
	1:[f4<4.75500011] yes=3,no=4,missing=3
		3:[f0<45.5] yes=7,no=8,missing=7
			7:[f5<1.11500001] yes=13,no=14,missing=13
				13:leaf=0.0499588065
				14:leaf=-0.132824615
			8:leaf=-0.168942422
		4:[f11<330.5] yes=9,no=10,missing=9
			9:leaf=-0.106852919
			10:leaf=0.0846910179
	2:[f1<1483] yes=5,no=6,missing=5
		5:[f6<541.5] yes=11,no=12,missing=11
			11:leaf=0.282870352
			12:leaf=0.00505542895
		6:leaf=-0.147709772
booster[12]:
0:[f8<324.5] yes=1,no=2,missing=1
	1:leaf=0.274754018
	2:[f11<15.5] yes=3,no=4,missing=3
		3:[f14<22.5] yes=5,no=6,missing=5
			5:leaf=0.0603324585
			6:leaf=-0.120934911
		4:leaf=-0.169057906
booster[13]:
0:[f7<136.5] yes=1,no=2,missing=1
	1:[f1<590.5] yes=3,no=4,missing=3
		3:leaf=-0.138002813
		4:[f3<22.3099995] yes=7,no=8,missing=7
			7:[f11<27.5] yes=13,no=14,missing=13
				13:leaf=0.0948935747
				14:leaf=0.280028671
			8:leaf=-0.11457298
	2:[f6<379.5] yes=5,no=6,missing=5
		5:[f13<3.625] yes=9,no=10,missing=9
			9:[f1<596.5] yes=15,no=16,missing=15
				15:leaf=-0.124768779
				16:leaf=0.20839256
			10:leaf=-0.168610841
		6:[f0<253.5] yes=11,no=12,missing=11
			11:[f13<4.51499987] yes=17,no=18,missing=17
				17:[f11<49.5] yes=21,no=22,missing=21
					21:leaf=-0.14501445
					22:leaf=0.128673881
				18:leaf=0.253122091
			12:[f1<1546] yes=19,no=20,missing=19
				19:leaf=-0.153439641
				20:leaf=0.0289563145
booster[14]:
0:[f11<465] yes=1,no=2,missing=1
	1:[f0<486.5] yes=3,no=4,missing=3
		3:[f11<302.5] yes=7,no=8,missing=7
			7:leaf=-0.169155285
			8:[f4<7.16499996] yes=13,no=14,missing=13
				13:leaf=-0.131647468
				14:[f4<8.11000061] yes=15,no=16,missing=15
					15:leaf=0.178511962
					16:leaf=0.00583347166
		4:[f4<5.34000015] yes=9,no=10,missing=9
			9:leaf=0.25061357
			10:leaf=-0.104169093
	2:[f3<20.1150017] yes=5,no=6,missing=5
		5:leaf=-0.107154407
		6:[f8<1879.5] yes=11,no=12,missing=11
			11:leaf=0.0283584762
			12:leaf=0.287620634
booster[15]:
0:[f3<21.4099998] yes=1,no=2,missing=1
	1:[f1<711] yes=3,no=4,missing=3
		3:[f1<195] yes=7,no=8,missing=7
			7:leaf=-0.154752493
			8:[f12<0.88499999] yes=15,no=16,missing=15
				15:[f13<2.2750001] yes=21,no=22,missing=21
					21:leaf=0.048730623
					22:[f5<3.67000008] yes=27,no=28,missing=27
						27:leaf=0.235891655
						28:leaf=0.0794646442
				16:[f2<14.7950001] yes=23,no=24,missing=23
					23:leaf=-0.0966673419
					24:leaf=0.151342884
		4:[f11<27.5] yes=9,no=10,missing=9
			9:leaf=0.122942194
			10:[f0<322.5] yes=17,no=18,missing=17
				17:leaf=-0.15749225
				18:[f2<12.0749998] yes=25,no=26,missing=25
					25:leaf=-0.118055306
					26:leaf=0.0582302809
	2:[f12<0.305000007] yes=5,no=6,missing=5
		5:[f13<23.2649994] yes=11,no=12,missing=11
			11:leaf=-0.106752105
			12:leaf=0.265305609
		6:[f3<22.7600002] yes=13,no=14,missing=13
			13:[f11<91.5] yes=19,no=20,missing=19
				19:leaf=-0.090849176
				20:leaf=0.0318512283
			14:leaf=-0.161322474
booster[16]:
0:[f4<5.83500004] yes=1,no=2,missing=1
	1:[f4<4.75500011] yes=3,no=4,missing=3
		3:[f4<0.88499999] yes=7,no=8,missing=7
			7:[f1<83.5] yes=13,no=14,missing=13
				13:leaf=0.0571353547
				14:leaf=-0.121580385
			8:leaf=-0.16365324
		4:[f11<330.5] yes=9,no=10,missing=9
			9:leaf=-0.0980458334
			10:leaf=0.0723670647
	2:[f1<1483] yes=5,no=6,missing=5
		5:[f6<541.5] yes=11,no=12,missing=11
			11:leaf=0.232234642
			12:leaf=-0.00167974015
		6:leaf=-0.13962023
booster[17]:
0:[f8<324.5] yes=1,no=2,missing=1
	1:leaf=0.224402204
	2:[f12<0.114999995] yes=3,no=4,missing=3
		3:[f5<1.5999999] yes=5,no=6,missing=5
			5:leaf=0.0588112585
			6:leaf=-0.109919555
		4:leaf=-0.163685083
booster[18]:
0:[f7<136.5] yes=1,no=2,missing=1
	1:[f1<590.5] yes=3,no=4,missing=3
		3:leaf=-0.12827462
		4:[f3<22.3099995] yes=7,no=8,missing=7
			7:[f1<902.5] yes=13,no=14,missing=13
				13:[f6<420.5] yes=21,no=22,missing=21
					21:leaf=0.215511441
					22:[f12<0.305000007] yes=25,no=26,missing=25
						25:leaf=0.151677519
						26:leaf=-0.0934983343
				14:leaf=0.237739965
			8:leaf=-0.104403481
	2:[f6<379.5] yes=5,no=6,missing=5
		5:[f13<3.625] yes=9,no=10,missing=9
			9:[f1<596.5] yes=15,no=16,missing=15
				15:leaf=-0.114889778
				16:leaf=0.176372305
			10:leaf=-0.163093731
		6:[f3<19.9200001] yes=11,no=12,missing=11
			11:[f13<4.51499987] yes=17,no=18,missing=17
				17:[f11<49.5] yes=23,no=24,missing=23
					23:leaf=-0.139073059
					24:leaf=0.108880013
				18:leaf=0.232736692
			12:[f1<1546] yes=19,no=20,missing=19
				19:leaf=-0.146280736
				20:leaf=0.0286434479
booster[19]:
0:[f12<3.30499983] yes=1,no=2,missing=1
	1:[f0<486.5] yes=3,no=4,missing=3
		3:[f11<362.5] yes=7,no=8,missing=7
			7:leaf=-0.163883016
			8:leaf=-0.018116327
		4:[f4<5.34000015] yes=9,no=10,missing=9
			9:leaf=0.173848867
			10:leaf=-0.0959511027
	2:[f3<20.625] yes=5,no=6,missing=5
		5:leaf=-0.116333149
		6:[f1<1445] yes=11,no=12,missing=11
			11:[f4<8.30999947] yes=13,no=14,missing=13
				13:leaf=0.0730778053
				14:leaf=-0.104262926
			12:leaf=0.235864654
booster[20]:
0:[f3<24.5649986] yes=1,no=2,missing=1
	1:[f1<902.5] yes=3,no=4,missing=3
		3:[f1<195] yes=7,no=8,missing=7
			7:[f13<23.6300011] yes=9,no=10,missing=9
				9:leaf=-0.150868565
				10:leaf=0.15768829
			8:[f1<711] yes=11,no=12,missing=11
				11:[f14<18.5] yes=13,no=14,missing=13
					13:[f1<476.5] yes=17,no=18,missing=17
						17:leaf=0.187429726
						18:leaf=-0.125206053
					14:[f12<0.914999962] yes=19,no=20,missing=19
						19:leaf=0.204953715
						20:leaf=0.0518030599
				12:[f11<62.5] yes=15,no=16,missing=15
					15:[f0<228.5] yes=21,no=22,missing=21
						21:leaf=-0.00321766967
						22:leaf=0.197593823
					16:leaf=-0.105039671
		4:leaf=-0.153157592
	2:[f12<0.305000007] yes=5,no=6,missing=5
		5:leaf=0.0443616584
		6:leaf=-0.156136125
booster[21]:
0:[f5<5.88500023] yes=1,no=2,missing=1
	1:[f3<50.3000031] yes=3,no=4,missing=3
		3:[f0<45.5] yes=7,no=8,missing=7
			7:[f1<74.5] yes=13,no=14,missing=13
				13:leaf=-0.107532613
				14:leaf=0.065443933
			8:leaf=-0.159620017
		4:[f2<46.125] yes=9,no=10,missing=9
			9:leaf=0.137035027
			10:leaf=-0.107125156
	2:[f1<1483] yes=5,no=6,missing=5
		5:[f6<541.5] yes=11,no=12,missing=11
			11:[f12<4.06500006] yes=15,no=16,missing=15
				15:leaf=0.208154842
				16:[f0<300] yes=17,no=18,missing=17
					17:leaf=0.00077215553
					18:leaf=0.145470843
			12:leaf=-0.00738623971
		6:leaf=-0.131909281
booster[22]:
0:[f8<324.5] yes=1,no=2,missing=1
	1:leaf=0.193612143
	2:[f5<1.46500003] yes=3,no=4,missing=3
		3:[f10<4.5] yes=5,no=6,missing=5
			5:leaf=-0.0982910991
			6:leaf=0.0579673536
		4:leaf=-0.15947257
booster[23]:
0:[f7<136.5] yes=1,no=2,missing=1
	1:[f1<590.5] yes=3,no=4,missing=3
		3:leaf=-0.118734337
		4:[f3<22.3099995] yes=7,no=8,missing=7
			7:[f1<902.5] yes=13,no=14,missing=13
				13:[f6<420.5] yes=21,no=22,missing=21
					21:leaf=0.185392097
					22:[f2<13.5100002] yes=27,no=28,missing=27
						27:leaf=-0.0912126601
						28:leaf=0.131764084
				14:leaf=0.208058745
			8:leaf=-0.0946563706
	2:[f6<379.5] yes=5,no=6,missing=5
		5:[f13<3.625] yes=9,no=10,missing=9
			9:[f1<596.5] yes=15,no=16,missing=15
				15:leaf=-0.105634667
				16:leaf=0.150534451
			10:leaf=-0.15862748
		6:[f3<19.9200001] yes=11,no=12,missing=11
			11:[f13<4.51499987] yes=17,no=18,missing=17
				17:[f11<49.5] yes=23,no=24,missing=23
					23:leaf=-0.131156877
					24:leaf=0.0929145217
				18:[f2<20.7750015] yes=25,no=26,missing=25
					25:leaf=0.0623711124
					26:leaf=0.220076799
			12:[f1<1546] yes=19,no=20,missing=19
				19:leaf=-0.139260009
				20:leaf=0.0286681149
booster[24]:
0:[f12<3.30499983] yes=1,no=2,missing=1
	1:[f0<486.5] yes=3,no=4,missing=3
		3:[f11<362.5] yes=7,no=8,missing=7
			7:leaf=-0.159667119
			8:leaf=-0.00921582431
		4:[f4<5.34000015] yes=9,no=10,missing=9
			9:leaf=0.149180189
			10:leaf=-0.087912038
	2:[f3<20.625] yes=5,no=6,missing=5
		5:leaf=-0.106630035
		6:[f8<1879.5] yes=11,no=12,missing=11
			11:[f3<85.3499985] yes=13,no=14,missing=13
				13:[f11<294] yes=15,no=16,missing=15
					15:leaf=0.0124244411
					16:leaf=-0.110375144
				14:leaf=0.144413203
			12:leaf=0.209984556
booster[25]:
0:[f3<24.5649986] yes=1,no=2,missing=1
	1:[f1<902.5] yes=3,no=4,missing=3
		3:[f1<195] yes=7,no=8,missing=7
			7:[f13<23.6300011] yes=9,no=10,missing=9
				9:leaf=-0.14523004
				10:leaf=0.15286985
			8:[f1<672.5] yes=11,no=12,missing=11
				11:[f14<18.5] yes=13,no=14,missing=13
					13:[f1<476.5] yes=17,no=18,missing=17
						17:leaf=0.158969119
						18:leaf=-0.116733618
					14:[f11<76] yes=19,no=20,missing=19
						19:leaf=0.187649027
						20:leaf=0.060873922
				12:[f0<190.5] yes=15,no=16,missing=15
					15:leaf=-0.106657095
					16:[f5<2.02999997] yes=21,no=22,missing=21
						21:leaf=-0.0478076637
						22:leaf=0.165085852
		4:leaf=-0.147396669
	2:[f12<0.305000007] yes=5,no=6,missing=5
		5:leaf=0.0518711582
		6:leaf=-0.15191263
booster[26]:
0:[f4<4.75500011] yes=1,no=2,missing=1
	1:[f4<0.88499999] yes=3,no=4,missing=3
		3:[f2<13.4499998] yes=7,no=8,missing=7
			7:leaf=-0.0987629369
			8:leaf=0.0689672604
		4:leaf=-0.155874506
	2:[f8<1879.5] yes=5,no=6,missing=5
		5:[f6<541.5] yes=9,no=10,missing=9
			9:[f0<259] yes=11,no=12,missing=11
				11:[f5<8.66499996] yes=13,no=14,missing=13
					13:leaf=-0.04170046
					14:leaf=0.148572192
				12:leaf=0.18804504
			10:leaf=-0.02269179
		6:leaf=-0.130074158
booster[27]:
0:[f8<324.5] yes=1,no=2,missing=1
	1:leaf=0.172294676
	2:[f11<15.5] yes=3,no=4,missing=3
		3:[f0<138.5] yes=5,no=6,missing=5
			5:leaf=-0.0877652019
			6:leaf=0.0580193512
		4:leaf=-0.155878276
booster[28]:
0:[f7<136.5] yes=1,no=2,missing=1
	1:[f1<590.5] yes=3,no=4,missing=3
		3:leaf=-0.109429672
		4:[f3<22.3099995] yes=7,no=8,missing=7
			7:[f1<902.5] yes=11,no=12,missing=11
				11:[f8<1085] yes=17,no=18,missing=17
					17:[f11<44] yes=21,no=22,missing=21
						21:leaf=0.0453425087
						22:leaf=0.169334769
					18:leaf=-0.00880363397
				12:leaf=0.188580289
			8:leaf=-0.0855439529
	2:[f1<589.5] yes=5,no=6,missing=5
		5:leaf=-0.15434292
		6:[f3<19.8150005] yes=9,no=10,missing=9
			9:[f14<75] yes=13,no=14,missing=13
				13:leaf=0.171157375
				14:[f13<5.20499992] yes=19,no=20,missing=19
					19:[f0<186.5] yes=23,no=24,missing=23
						23:leaf=0.00620910944
						24:leaf=-0.115226567
					20:leaf=0.136835158
			10:[f6<494.5] yes=15,no=16,missing=15
				15:leaf=-0.145333782
				16:leaf=-0.0164174475
booster[29]:
0:[f12<3.30499983] yes=1,no=2,missing=1
	1:[f0<486.5] yes=3,no=4,missing=3
		3:[f11<362.5] yes=7,no=8,missing=7
			7:leaf=-0.156243622
			8:leaf=-0.000904808345
		4:[f14<41.5] yes=9,no=10,missing=9
			9:leaf=0.0897708982
			10:leaf=-0.0155895771
	2:[f3<20.625] yes=5,no=6,missing=5
		5:leaf=-0.0971077755
		6:[f8<1879.5] yes=11,no=12,missing=11
			11:[f3<85.3499985] yes=13,no=14,missing=13
				13:[f11<294] yes=15,no=16,missing=15
					15:leaf=0.0102553423
					16:leaf=-0.102151692
				14:leaf=0.125962988
			12:leaf=0.187465936
booster[30]:
0:[f8<1013.5] yes=1,no=2,missing=1
	1:[f1<195] yes=3,no=4,missing=3
		3:[f12<0.305000007] yes=7,no=8,missing=7
			7:[f13<23.2649994] yes=13,no=14,missing=13
				13:leaf=-0.125248075
				14:leaf=0.246003255
			8:leaf=-0.143511772
		4:[f5<3.91499996] yes=9,no=10,missing=9
			9:[f14<18.5] yes=15,no=16,missing=15
				15:[f1<476.5] yes=19,no=20,missing=19
					19:leaf=0.137742206
					20:leaf=-0.109177291
				16:[f1<711] yes=21,no=22,missing=21
					21:[f12<0.914999962] yes=23,no=24,missing=23
						23:leaf=0.174287468
						24:leaf=0.0395806655
					22:leaf=0.00476887403
			10:[f3<49.6549988] yes=17,no=18,missing=17
				17:leaf=-0.00865404401
				18:leaf=-0.118921064
	2:[f11<61.5] yes=5,no=6,missing=5
		5:[f1<910.5] yes=11,no=12,missing=11
			11:leaf=0.107569925
			12:leaf=-0.10462454
		6:leaf=-0.148904905
booster[31]:
0:[f4<4.75500011] yes=1,no=2,missing=1
	1:[f0<45.5] yes=3,no=4,missing=3
		3:[f11<10] yes=7,no=8,missing=7
			7:leaf=-0.0839128569
			8:leaf=0.0687012002
		4:leaf=-0.152783424
	2:[f8<1879.5] yes=5,no=6,missing=5
		5:[f6<541.5] yes=9,no=10,missing=9
			9:[f0<259] yes=11,no=12,missing=11
				11:[f5<8.66499996] yes=13,no=14,missing=13
					13:leaf=-0.0380228236
					14:leaf=0.13413538
				12:leaf=0.173817873
			10:leaf=-0.0236502085
		6:leaf=-0.122344084
booster[32]:
0:[f8<324.5] yes=1,no=2,missing=1
	1:[f12<0.305000007] yes=3,no=4,missing=3
		3:[f13<23.2649994] yes=7,no=8,missing=7
			7:leaf=0.168499544
			8:leaf=-0.171035752
		4:leaf=0.168728247
	2:[f12<0.114999995] yes=5,no=6,missing=5
		5:leaf=-0.0099802902
		6:leaf=-0.152832627
booster[33]:
0:[f7<156] yes=1,no=2,missing=1
	1:[f1<575] yes=3,no=4,missing=3
		3:leaf=-0.119660392
		4:[f3<20.625] yes=7,no=8,missing=7
			7:[f1<902.5] yes=13,no=14,missing=13
				13:[f0<264.5] yes=17,no=18,missing=17
					17:[f11<41.5] yes=21,no=22,missing=21
						21:leaf=0.00485565886
						22:leaf=0.172495186
					18:leaf=-0.0465693362
				14:leaf=0.175513342
			8:leaf=-0.0982678756
	2:[f6<379.5] yes=5,no=6,missing=5
		5:[f13<3.15999985] yes=9,no=10,missing=9
			9:leaf=-0.00565157179
			10:leaf=-0.151568219
		6:[f3<28.3299999] yes=11,no=12,missing=11
			11:[f13<4.51499987] yes=15,no=16,missing=15
				15:leaf=-0.113704592
				16:[f2<23.5699997] yes=19,no=20,missing=19
					19:leaf=-0.0329634771
					20:leaf=0.193159446
			12:leaf=-0.121126756
booster[34]:
0:[f12<3.30499983] yes=1,no=2,missing=1
	1:[f0<486.5] yes=3,no=4,missing=3
		3:[f11<362.5] yes=7,no=8,missing=7
			7:leaf=-0.153328121
			8:leaf=0.00688119559
		4:[f7<187.5] yes=9,no=10,missing=9
			9:leaf=0.0768404454
			10:leaf=-0.00893150177
	2:[f3<20.625] yes=5,no=6,missing=5
		5:leaf=-0.0878834203
		6:[f8<1879.5] yes=11,no=12,missing=11
			11:[f3<85.3499985] yes=13,no=14,missing=13
				13:[f11<345.5] yes=15,no=16,missing=15
					15:leaf=-0.000795178057
					16:leaf=-0.0902626663
				14:leaf=0.113224126
			12:leaf=0.171076998
booster[35]:
0:[f12<0.675000012] yes=1,no=2,missing=1
	1:[f1<195] yes=3,no=4,missing=3
		3:[f2<39.4700012] yes=7,no=8,missing=7
			7:leaf=-0.13477689
			8:[f10<2.5] yes=15,no=16,missing=15
				15:leaf=-0.120693669
				16:leaf=0.200661272
		4:[f6<532.5] yes=9,no=10,missing=9
			9:[f14<29] yes=17,no=18,missing=17
				17:[f0<154] yes=21,no=22,missing=21
					21:leaf=0.124573551
					22:leaf=-0.119531132
				18:[f11<64.5] yes=23,no=24,missing=23
					23:[f5<3.67000008] yes=25,no=26,missing=25
						25:leaf=0.168085575
						26:leaf=0.0423703641
					24:leaf=0.0359528735
			10:leaf=-0.104896024
	2:[f6<231] yes=5,no=6,missing=5
		5:[f10<2.5] yes=11,no=12,missing=11
			11:leaf=-0.117727734
			12:[f2<24.2700005] yes=19,no=20,missing=19
				19:leaf=0.117168508
				20:leaf=-0.0412793308
		6:[f4<1.80999994] yes=13,no=14,missing=13
			13:leaf=-0.0391797833
			14:leaf=-0.144149095
booster[36]:
0:[f4<4.75500011] yes=1,no=2,missing=1
	1:[f4<0.88499999] yes=3,no=4,missing=3
		3:leaf=0.00522600906
		4:leaf=-0.150095299
	2:[f8<1879.5] yes=5,no=6,missing=5
		5:[f6<541.5] yes=7,no=8,missing=7
			7:[f0<259] yes=9,no=10,missing=9
				9:[f6<277] yes=11,no=12,missing=11
					11:leaf=-0.0258778166
					12:leaf=0.136525601
				10:leaf=0.163243338
			8:leaf=-0.0262221824
		6:leaf=-0.114147782
booster[37]:
0:[f8<324.5] yes=1,no=2,missing=1
	1:[f0<60.5] yes=3,no=4,missing=3
		3:[f10<2.5] yes=7,no=8,missing=7
			7:[f4<0.935000002] yes=9,no=10,missing=9
				9:leaf=-0.0313215293
				10:leaf=0.160505086
			8:leaf=-0.110795677
		4:leaf=0.158598721
	2:[f5<1.46500003] yes=5,no=6,missing=5
		5:leaf=0.00212217472
		6:leaf=-0.150106281
booster[38]:
0:[f1<589.5] yes=1,no=2,missing=1
	1:leaf=-0.148356676
	2:[f3<20.1949997] yes=3,no=4,missing=3
		3:[f11<28] yes=5,no=6,missing=5
			5:leaf=-0.0266443919
			6:[f1<711] yes=9,no=10,missing=9
				9:[f0<264.5] yes=11,no=12,missing=11
					11:[f15<0.5] yes=13,no=14,missing=13
						13:leaf=0.134204492
						14:leaf=0.0138732148
					12:leaf=-0.0870553851
				10:leaf=0.161688447
		4:[f12<1.30500007] yes=7,no=8,missing=7
			7:leaf=-0.0227859169
			8:leaf=-0.137283176
booster[39]:
0:[f11<246.5] yes=1,no=2,missing=1
	1:[f0<486.5] yes=3,no=4,missing=3
		3:leaf=-0.150773317
		4:leaf=0.0699816942
	2:[f3<21.6100006] yes=5,no=6,missing=5
		5:leaf=-0.110800833
		6:[f8<1879.5] yes=7,no=8,missing=7
			7:[f11<376.5] yes=9,no=10,missing=9
				9:leaf=0.145849675
				10:leaf=-0.0569368899
			8:leaf=0.158385381
booster[40]:
0:[f3<24.5649986] yes=1,no=2,missing=1
	1:[f1<902.5] yes=3,no=4,missing=3
		3:[f5<1.61500001] yes=7,no=8,missing=7
			7:[f1<234.5] yes=9,no=10,missing=9
				9:leaf=-0.124854229
				10:leaf=0.0284260884
			8:[f1<583.5] yes=11,no=12,missing=11
				11:[f1<191.5] yes=13,no=14,missing=13
					13:leaf=0.0614508279
					14:leaf=0.161262006
				12:[f0<180] yes=15,no=16,missing=15
					15:[f15<0.5] yes=17,no=18,missing=17
						17:leaf=-0.103993282
						18:leaf=0.0138514386
					16:[f5<2.02999997] yes=19,no=20,missing=19
						19:leaf=-0.0525790565
						20:leaf=0.148524642
		4:leaf=-0.131390601
	2:[f12<0.305000007] yes=5,no=6,missing=5
		5:leaf=0.0451831035
		6:leaf=-0.140867546
booster[41]:
0:[f4<4.75500011] yes=1,no=2,missing=1
	1:[f0<45.5] yes=3,no=4,missing=3
		3:leaf=0.0236731693
		4:leaf=-0.147407994
	2:[f8<1879.5] yes=5,no=6,missing=5
		5:[f6<541.5] yes=7,no=8,missing=7
			7:[f0<259] yes=9,no=10,missing=9
				9:[f6<277] yes=11,no=12,missing=11
					11:leaf=-0.026578974
					12:leaf=0.123198397
				10:[f2<21.2749996] yes=13,no=14,missing=13
					13:leaf=0.0456547812
					14:leaf=0.158433914
			8:leaf=-0.0257113632
		6:leaf=-0.106550418
booster[42]:
0:[f8<324.5] yes=1,no=2,missing=1
	1:[f0<60.5] yes=3,no=4,missing=3
		3:[f6<68.5] yes=7,no=8,missing=7
			7:[f4<0.935000002] yes=9,no=10,missing=9
				9:leaf=-0.0384154916
				10:leaf=0.151232362
			8:leaf=-0.102479331
		4:leaf=0.149493739
	2:[f12<0.114999995] yes=5,no=6,missing=5
		5:leaf=0.00798169058
		6:leaf=-0.147343963
booster[43]:
0:[f1<589.5] yes=1,no=2,missing=1
	1:leaf=-0.145329297
	2:[f3<20.1949997] yes=3,no=4,missing=3
		3:[f1<902.5] yes=5,no=6,missing=5
			5:[f11<28] yes=9,no=10,missing=9
				9:leaf=-0.09706337
				10:[f0<264.5] yes=11,no=12,missing=11
					11:leaf=0.133512914
					12:leaf=-0.0663253888
			6:leaf=0.160064965
		4:[f6<494.5] yes=7,no=8,missing=7
			7:leaf=-0.13118434
			8:leaf=-0.0170705896
booster[44]:
0:[f8<1580] yes=1,no=2,missing=1
	1:[f12<4.06500006] yes=3,no=4,missing=3
		3:leaf=-0.147998556
		4:leaf=0.0160017293
	2:[f3<21.6100006] yes=5,no=6,missing=5
		5:leaf=-0.110612996
		6:[f12<1.70000005] yes=7,no=8,missing=7
			7:leaf=0.0191972274
			8:[f0<340] yes=9,no=10,missing=9
				9:leaf=0.0281363092
				10:leaf=0.14371714
booster[45]:
0:[f12<0.675000012] yes=1,no=2,missing=1
	1:[f5<1.61500001] yes=3,no=4,missing=3
		3:[f11<19.5] yes=7,no=8,missing=7
			7:leaf=-0.113876395
			8:leaf=0.0194397233
		4:[f7<605.5] yes=9,no=10,missing=9
			9:[f6<544.5] yes=13,no=14,missing=13
				13:[f5<3.67000008] yes=17,no=18,missing=17
					17:[f14<18.5] yes=19,no=20,missing=19
						19:leaf=0.026313737
						20:leaf=0.15111579
					18:leaf=-0.00100149948
				14:leaf=-0.0936252102
			10:leaf=-0.0997564718
	2:[f8<1013.5] yes=5,no=6,missing=5
		5:[f7<312] yes=11,no=12,missing=11
			11:[f5<1.95499992] yes=15,no=16,missing=15
				15:leaf=-0.0449986234
				16:leaf=0.11656303
			12:leaf=-0.108550303
		6:leaf=-0.134852156
booster[46]:
0:[f4<4.75500011] yes=1,no=2,missing=1
	1:[f4<0.88499999] yes=3,no=4,missing=3
		3:leaf=0.0349046551
		4:leaf=-0.144654155
	2:[f1<1483] yes=5,no=6,missing=5
		5:[f6<541.5] yes=7,no=8,missing=7
			7:[f4<7.96000004] yes=9,no=10,missing=9
				9:[f2<39.3349991] yes=11,no=12,missing=11
					11:[f0<540.5] yes=13,no=14,missing=13
						13:leaf=0.128520966
						14:leaf=0.027168991
					12:leaf=-0.0703459233
				10:leaf=0.151493907
			8:leaf=-0.0221114904
		6:leaf=-0.0998638421
booster[47]:
0:[f8<324.5] yes=1,no=2,missing=1
	1:[f13<19.8549995] yes=3,no=4,missing=3
		3:leaf=0.151743278
		4:[f12<0.305000007] yes=7,no=8,missing=7
			7:[f3<24.1800003] yes=9,no=10,missing=9
				9:leaf=0.00033369835
				10:leaf=-0.104250558
			8:[f4<1.02999997] yes=11,no=12,missing=11
				11:leaf=-0.0623677596
				12:leaf=0.148540154
	2:[f11<15.5] yes=5,no=6,missing=5
		5:leaf=0.0174322017
		6:leaf=-0.144520029
booster[48]:
0:[f1<589.5] yes=1,no=2,missing=1
	1:leaf=-0.142077118
	2:[f3<20.1949997] yes=3,no=4,missing=3
		3:[f1<902.5] yes=5,no=6,missing=5
			5:[f0<264.5] yes=9,no=10,missing=9
				9:[f11<29.5] yes=11,no=12,missing=11
					11:leaf=-0.0172935296
					12:[f7<156] yes=13,no=14,missing=13
						13:leaf=0.134460479
						14:leaf=0.0389112383
				10:leaf=-0.0593850613
			6:leaf=0.15324831
		4:[f12<1.30500007] yes=7,no=8,missing=7
			7:leaf=-0.0109752994
			8:leaf=-0.126417592
booster[49]:
0:[f11<246.5] yes=1,no=2,missing=1
	1:[f0<486.5] yes=3,no=4,missing=3
		3:leaf=-0.145881176
		4:leaf=0.0610879883
	2:[f3<21.6100006] yes=5,no=6,missing=5
		5:leaf=-0.093256332
		6:[f1<1483] yes=7,no=8,missing=7
			7:[f11<376.5] yes=9,no=10,missing=9
				9:leaf=0.125680313
				10:leaf=-0.0576008521
			8:leaf=0.140366554
booster[50]:
0:[f1<902.5] yes=1,no=2,missing=1
	1:[f3<31.5900002] yes=3,no=4,missing=3
		3:[f5<1.61500001] yes=5,no=6,missing=5
			5:[f1<234.5] yes=7,no=8,missing=7
				7:leaf=-0.116940595
				8:leaf=0.0156030329
			6:[f1<583.5] yes=9,no=10,missing=9
				9:leaf=0.142444685
				10:[f0<180] yes=11,no=12,missing=11
					11:leaf=-0.0601008646
					12:[f5<2.02999997] yes=13,no=14,missing=13
						13:leaf=-0.046303086
						14:leaf=0.119056582
		4:leaf=-0.122941233
	2:leaf=-0.13093774
booster[51]:
0:[f4<4.75500011] yes=1,no=2,missing=1
	1:[f0<45.5] yes=3,no=4,missing=3
		3:leaf=0.0506649539
		4:leaf=-0.141769558
	2:[f8<1879.5] yes=5,no=6,missing=5
		5:[f6<541.5] yes=7,no=8,missing=7
			7:[f0<259] yes=9,no=10,missing=9
				9:[f6<277] yes=11,no=12,missing=11
					11:leaf=-0.0356530249
					12:leaf=0.100740924
				10:leaf=0.141184136
			8:leaf=-0.0214239135
		6:leaf=-0.0931741148
booster[52]:
0:[f8<324.5] yes=1,no=2,missing=1
	1:[f13<19.8549995] yes=3,no=4,missing=3
		3:leaf=0.146113783
		4:[f7<605.5] yes=7,no=8,missing=7
			7:[f0<73] yes=9,no=10,missing=9
				9:[f3<25.1000004] yes=11,no=12,missing=11
					11:leaf=-0.17541641
					12:leaf=0.000273005018
				10:leaf=0.106322646
			8:leaf=0.141217232
	2:[f5<1.46500003] yes=5,no=6,missing=5
		5:leaf=0.0195885245
		6:leaf=-0.14158389
booster[53]:
0:[f1<589.5] yes=1,no=2,missing=1
	1:leaf=-0.138630003
	2:[f3<20.1949997] yes=3,no=4,missing=3
		3:[f1<902.5] yes=5,no=6,missing=5
			5:[f0<264.5] yes=9,no=10,missing=9
				9:[f11<29.5] yes=11,no=12,missing=11
					11:leaf=-0.0122595588
					12:[f1<668] yes=13,no=14,missing=13
						13:leaf=0.0324477665
						14:leaf=0.124670483
				10:leaf=-0.0535594188
			6:leaf=0.14737086
		4:[f12<1.30500007] yes=7,no=8,missing=7
			7:leaf=-0.00945137627
			8:leaf=-0.120373078
booster[54]:
0:[f8<1580] yes=1,no=2,missing=1
	1:[f12<4.06500006] yes=3,no=4,missing=3
		3:leaf=-0.14261125
		4:leaf=0.0216260031
	2:[f3<21.6100006] yes=5,no=6,missing=5
		5:leaf=-0.0931638628
		6:[f7<220] yes=7,no=8,missing=7
			7:leaf=0.131333187
			8:[f5<8.34000015] yes=9,no=10,missing=9
				9:leaf=-0.0623087399
				10:leaf=0.0929433554
booster[55]:
0:[f12<0.675000012] yes=1,no=2,missing=1
	1:[f5<1.61500001] yes=3,no=4,missing=3
		3:[f11<19.5] yes=7,no=8,missing=7
			7:[f15<0.5] yes=13,no=14,missing=13
				13:leaf=-0.0293616708
				14:leaf=-0.116510034
			8:leaf=0.0181376766
		4:[f7<605.5] yes=9,no=10,missing=9
			9:[f6<544.5] yes=15,no=16,missing=15
				15:[f5<3.67000008] yes=17,no=18,missing=17
					17:[f14<41.5] yes=19,no=20,missing=19
						19:leaf=0.0386605002
						20:leaf=0.140077055
					18:leaf=-0.0132339718
				16:leaf=-0.0785573795
			10:leaf=-0.0843080133
	2:[f6<231] yes=5,no=6,missing=5
		5:[f10<2.5] yes=11,no=12,missing=11
			11:leaf=-0.0870653018
			12:leaf=0.0435524583
		6:leaf=-0.12145558
booster[56]:
0:[f5<5.88500023] yes=1,no=2,missing=1
	1:[f4<0.88499999] yes=3,no=4,missing=3
		3:leaf=0.0602300353
		4:[f3<50.3000031] yes=7,no=8,missing=7
			7:leaf=-0.139765009
			8:leaf=0.0217444077
	2:[f11<327] yes=5,no=6,missing=5
		5:[f7<280] yes=9,no=10,missing=9
			9:leaf=0.035082642
			10:leaf=0.140409753
		6:[f5<7.88999987] yes=11,no=12,missing=11
			11:leaf=0.0530669838
			12:leaf=-0.0890924782
booster[57]:
0:[f8<324.5] yes=1,no=2,missing=1
	1:[f0<60.5] yes=3,no=4,missing=3
		3:[f1<81.5] yes=7,no=8,missing=7
			7:leaf=0.126147643
			8:[f13<19.1849995] yes=11,no=12,missing=11
				11:leaf=0.0880251303
				12:leaf=-0.148379534
		4:[f2<39.3850021] yes=9,no=10,missing=9
			9:leaf=0.141782179
			10:[f3<32.0050011] yes=13,no=14,missing=13
				13:leaf=-0.0213013981
				14:leaf=0.102186434
	2:[f12<0.114999995] yes=5,no=6,missing=5
		5:leaf=0.025961211
		6:leaf=-0.138315439
booster[58]:
0:[f1<589.5] yes=1,no=2,missing=1
	1:leaf=-0.134731531
	2:[f3<20.1949997] yes=3,no=4,missing=3
		3:[f11<61.5] yes=5,no=6,missing=5
			5:[f0<228] yes=9,no=10,missing=9
				9:[f7<151] yes=13,no=14,missing=13
					13:leaf=0.113064714
					14:[f5<3.55000019] yes=17,no=18,missing=17
						17:leaf=-0.0408264473
						18:leaf=0.0854829401
				10:[f3<9.48500061] yes=15,no=16,missing=15
					15:leaf=0.00609774049
					16:leaf=-0.0697171018
			6:[f6<220.5] yes=11,no=12,missing=11
				11:leaf=0.0463648364
				12:leaf=0.143901378
		4:[f1<1588.5] yes=7,no=8,missing=7
			7:leaf=-0.115162514
			8:leaf=-0.00191498932
booster[59]:
0:[f4<4.3499999] yes=1,no=2,missing=1
	1:leaf=-0.138731062
	2:[f1<899] yes=3,no=4,missing=3
		3:leaf=-0.0966378376
		4:[f12<1.70000005] yes=5,no=6,missing=5
			5:leaf=-0.00592060341
			6:[f4<8.69499969] yes=7,no=8,missing=7
				7:[f13<6.24499989] yes=9,no=10,missing=9
					9:leaf=0.0386296995
					10:leaf=0.134322077
				8:[f1<1501] yes=11,no=12,missing=11
					11:leaf=-0.0553325266
					12:leaf=0.0882152468
booster[60]:
0:[f1<902.5] yes=1,no=2,missing=1
	1:[f3<31.5900002] yes=3,no=4,missing=3
		3:[f5<1.61500001] yes=5,no=6,missing=5
			5:[f1<234.5] yes=7,no=8,missing=7
				7:leaf=-0.10424725
				8:leaf=0.0065463041
			6:[f1<583.5] yes=9,no=10,missing=9
				9:[f1<191.5] yes=11,no=12,missing=11
					11:[f11<9.5] yes=15,no=16,missing=15
						15:leaf=0.141433552
						16:leaf=-0.0832573697
					12:leaf=0.140673339
				10:[f0<180] yes=13,no=14,missing=13
					13:leaf=-0.0586646982
					14:[f5<2.02999997] yes=17,no=18,missing=17
						17:leaf=-0.0398793146
						18:leaf=0.0997440293
		4:leaf=-0.109860249
	2:leaf=-0.121001951
booster[61]:
0:[f3<21.1599998] yes=1,no=2,missing=1
	1:leaf=-0.132728875
	2:[f11<12.5] yes=3,no=4,missing=3
		3:leaf=-0.0744275451
		4:[f1<1483] yes=5,no=6,missing=5
			5:[f11<327] yes=7,no=8,missing=7
				7:[f0<433] yes=9,no=10,missing=9
					9:leaf=0.146504074
					10:leaf=0.0125747221
				8:[f7<326] yes=11,no=12,missing=11
					11:leaf=0.0949375331
					12:leaf=-0.0767083317
			6:leaf=-0.0833084583
booster[62]:
0:[f8<324.5] yes=1,no=2,missing=1
	1:[f0<60.5] yes=3,no=4,missing=3
		3:[f1<81.5] yes=7,no=8,missing=7
			7:leaf=0.118199378
			8:[f13<19.1849995] yes=11,no=12,missing=11
				11:leaf=0.0802281722
				12:leaf=-0.133363873
		4:[f2<39.3850021] yes=9,no=10,missing=9
			9:leaf=0.137004986
			10:[f13<26.3199997] yes=13,no=14,missing=13
				13:leaf=-0.0151255699
				14:leaf=0.0939730778
	2:[f11<15.5] yes=5,no=6,missing=5
		5:leaf=0.0251990128
		6:leaf=-0.134765968
booster[63]:
0:[f1<589.5] yes=1,no=2,missing=1
	1:leaf=-0.130569965
	2:[f3<28.0799999] yes=3,no=4,missing=3
		3:[f11<61.5] yes=5,no=6,missing=5
			5:[f0<228] yes=7,no=8,missing=7
				7:[f3<10.9899998] yes=11,no=12,missing=11
					11:leaf=0.102989547
					12:leaf=0.0134895574
				8:[f3<9.80000019] yes=13,no=14,missing=13
					13:leaf=0.00797764771
					14:leaf=-0.0793478712
			6:[f4<3.86999989] yes=9,no=10,missing=9
				9:leaf=0.133745596
				10:leaf=0.0281223971
		4:leaf=-0.108526528
booster[64]:
0:[f4<4.3499999] yes=1,no=2,missing=1
	1:leaf=-0.13522853
	2:[f1<899] yes=3,no=4,missing=3
		3:leaf=-0.088707529
		4:[f7<220] yes=5,no=6,missing=5
			5:leaf=0.108780503
			6:[f11<327] yes=7,no=8,missing=7
				7:leaf=-0.0814879015
				8:[f11<399] yes=9,no=10,missing=9
					9:leaf=0.123723
					10:leaf=0.0163174998
booster[65]:
0:[f1<902.5] yes=1,no=2,missing=1
	1:[f3<31.5900002] yes=3,no=4,missing=3
		3:[f5<1.61500001] yes=5,no=6,missing=5
			5:[f1<234.5] yes=7,no=8,missing=7
				7:leaf=-0.0974385887
				8:leaf=0.00129692024
			6:[f1<583.5] yes=9,no=10,missing=9
				9:[f1<191.5] yes=11,no=12,missing=11
					11:[f1<96.5] yes=15,no=16,missing=15
						15:leaf=0.110736638
						16:leaf=-0.0292031132
					12:leaf=0.135431066
				10:[f13<5.13000011] yes=13,no=14,missing=13
					13:[f6<395.5] yes=17,no=18,missing=17
						17:leaf=-0.0216078572
						18:leaf=0.0964174345
					14:leaf=-0.0477782451
		4:leaf=-0.102562405
	2:leaf=-0.115318142
booster[66]:
0:[f3<21.1599998] yes=1,no=2,missing=1
	1:leaf=-0.128125086
	2:[f11<12.5] yes=3,no=4,missing=3
		3:leaf=-0.0667215884
		4:[f8<1879.5] yes=5,no=6,missing=5
			5:[f13<7.26999998] yes=7,no=8,missing=7
				7:leaf=0.00176067592
				8:[f12<4.06500006] yes=9,no=10,missing=9
					9:leaf=0.140880466
					10:leaf=-0.0106139872
			6:leaf=-0.0783276409
booster[67]:
0:[f8<324.5] yes=1,no=2,missing=1
	1:[f0<60.5] yes=3,no=4,missing=3
		3:[f6<47.5] yes=7,no=8,missing=7
			7:leaf=0.110990785
			8:[f14<29] yes=11,no=12,missing=11
				11:leaf=-0.0911588892
				12:leaf=0.0126272207
		4:[f2<39.3850021] yes=9,no=10,missing=9
			9:leaf=0.131390497
			10:[f7<719] yes=13,no=14,missing=13
				13:leaf=-0.0090458449
				14:leaf=0.0849318057
	2:[f12<0.114999995] yes=5,no=6,missing=5
		5:leaf=0.027549725
		6:leaf=-0.130713075
booster[68]:
0:[f1<589.5] yes=1,no=2,missing=1
	1:leaf=-0.125693008
	2:[f3<28.0799999] yes=3,no=4,missing=3
		3:[f1<711] yes=5,no=6,missing=5
			5:[f0<179.5] yes=7,no=8,missing=7
				7:leaf=0.0673152879
				8:leaf=-0.0452273935
			6:[f0<322.5] yes=9,no=10,missing=9
				9:[f11<33.5] yes=11,no=12,missing=11
					11:leaf=0.00984175876
					12:leaf=0.136794403
				10:[f11<102] yes=13,no=14,missing=13
					13:leaf=-0.0451856516
					14:leaf=0.0710068122
		4:leaf=-0.101684384
booster[69]:
0:[f4<4.3499999] yes=1,no=2,missing=1
	1:leaf=-0.131188691
	2:[f1<899] yes=3,no=4,missing=3
		3:leaf=-0.0810279027
		4:[f7<220] yes=5,no=6,missing=5
			5:leaf=0.100673392
			6:[f3<79.6349945] yes=7,no=8,missing=7
				7:[f5<8.34000015] yes=9,no=10,missing=9
					9:leaf=-0.0731115192
					10:leaf=0.0339229926
				8:leaf=0.0850595981
booster[70]:
0:[f1<902.5] yes=1,no=2,missing=1
	1:[f3<31.5900002] yes=3,no=4,missing=3
		3:[f5<1.61500001] yes=5,no=6,missing=5
			5:[f1<234.5] yes=7,no=8,missing=7
				7:leaf=-0.0909143463
				8:leaf=-0.00314741908
			6:[f1<583.5] yes=9,no=10,missing=9
				9:[f1<191.5] yes=11,no=12,missing=11
					11:[f1<99.5] yes=15,no=16,missing=15
						15:leaf=0.100387
						16:leaf=-0.0227430854
					12:leaf=0.129937112
				10:[f0<211.5] yes=13,no=14,missing=13
					13:[f13<4.51499987] yes=17,no=18,missing=17
						17:leaf=0.0425515808
						18:leaf=-0.0928720161
					14:[f11<62.5] yes=19,no=20,missing=19
						19:leaf=0.0974467471
						20:leaf=-0.00145346764
		4:leaf=-0.0955910757
	2:leaf=-0.109294266
booster[71]:
0:[f3<21.1599998] yes=1,no=2,missing=1
	1:leaf=-0.123108692
	2:[f4<8.69499969] yes=3,no=4,missing=3
		3:[f2<33] yes=5,no=6,missing=5
			5:[f7<214.5] yes=7,no=8,missing=7
				7:leaf=-0.0242393594
				8:leaf=0.133043557
			6:[f0<273] yes=9,no=10,missing=9
				9:leaf=-0.111670516
				10:leaf=-0.0218689777
		4:leaf=0.107088245
booster[72]:
0:[f8<324.5] yes=1,no=2,missing=1
	1:[f4<0.88499999] yes=3,no=4,missing=3
		3:leaf=-0.011426202
		4:[f12<0.305000007] yes=7,no=8,missing=7
			7:[f13<23.2649994] yes=9,no=10,missing=9
				9:leaf=0.105728306
				10:leaf=-0.091455996
			8:leaf=0.131986916
	2:[f5<1.46500003] yes=5,no=6,missing=5
		5:leaf=0.0278702062
		6:leaf=-0.126251385
booster[73]:
0:[f1<589.5] yes=1,no=2,missing=1
	1:leaf=-0.120467879
	2:[f3<20.1949997] yes=3,no=4,missing=3
		3:[f1<902.5] yes=5,no=6,missing=5
			5:[f0<264.5] yes=9,no=10,missing=9
				9:[f11<29.5] yes=11,no=12,missing=11
					11:leaf=-0.0150696468
					12:[f1<668] yes=13,no=14,missing=13
						13:leaf=0.0188876223
						14:leaf=0.101800017
				10:leaf=-0.0515003316
			6:leaf=0.126177147
		4:[f8<1930] yes=7,no=8,missing=7
			7:leaf=-0.0965602919
			8:leaf=0.00295815757
booster[74]:
0:[f4<4.3499999] yes=1,no=2,missing=1
	1:leaf=-0.126785845
	2:[f11<246.5] yes=3,no=4,missing=3
		3:[f4<6.55499983] yes=5,no=6,missing=5
			5:leaf=0.033666607
			6:leaf=-0.0859103277
		4:[f1<1483] yes=7,no=8,missing=7
			7:[f11<376.5] yes=9,no=10,missing=9
				9:leaf=0.0895232335
				10:leaf=-0.0615741424
			8:leaf=0.105990604
booster[75]:
0:[f1<710.5] yes=1,no=2,missing=1
	1:[f6<62.5] yes=3,no=4,missing=3
		3:leaf=-0.0894113407
		4:[f14<18.5] yes=7,no=8,missing=7
			7:leaf=-0.0604692437
			8:[f5<3.67000008] yes=9,no=10,missing=9
				9:[f1<195] yes=11,no=12,missing=11
					11:[f1<104] yes=13,no=14,missing=13
						13:leaf=0.0806833729
						14:leaf=-0.0312441085
					12:[f11<67.5] yes=15,no=16,missing=15
						15:leaf=0.13244161
						16:leaf=0.030850213
				10:leaf=-0.0378253348
	2:[f2<13.4300003] yes=5,no=6,missing=5
		5:leaf=0.0172041561
		6:leaf=-0.103251174
booster[76]:
0:[f3<21.1599998] yes=1,no=2,missing=1
	1:leaf=-0.117881618
	2:[f11<12.5] yes=3,no=4,missing=3
		3:leaf=-0.0557948723
		4:[f7<413.5] yes=5,no=6,missing=5
			5:[f1<1445] yes=7,no=8,missing=7
				7:[f11<376.5] yes=9,no=10,missing=9
					9:[f0<346] yes=11,no=12,missing=11
						11:leaf=-0.0738583431
						12:leaf=0.0481258444
					10:leaf=0.0922138989
				8:leaf=-0.0616846457
			6:leaf=0.128982291
booster[77]:
0:[f0<168] yes=1,no=2,missing=1
	1:[f4<0.88499999] yes=3,no=4,missing=3
		3:leaf=-0.0226161033
		4:[f12<0.305000007] yes=5,no=6,missing=5
			5:[f13<23.2649994] yes=7,no=8,missing=7
				7:[f4<1.70000005] yes=9,no=10,missing=9
					9:leaf=0.0982616395
					10:leaf=-0.00152995903
				8:leaf=-0.0831783265
			6:leaf=0.118765794
	2:leaf=-0.117673121
booster[78]:
0:[f1<589.5] yes=1,no=2,missing=1
	1:leaf=-0.114648111
	2:[f3<10.5950003] yes=3,no=4,missing=3
		3:[f11<51] yes=5,no=6,missing=5
			5:[f2<16.3649998] yes=9,no=10,missing=9
				9:leaf=-0.0147558963
				10:leaf=0.0681562647
			6:leaf=0.119479679
		4:[f0<300.5] yes=7,no=8,missing=7
			7:[f7<167.5] yes=11,no=12,missing=11
				11:leaf=0.0800652727
				12:leaf=-0.0210476667
			8:[f8<1959.5] yes=13,no=14,missing=13
				13:leaf=-0.10557384
				14:leaf=0.0130407922
booster[79]:
0:[f4<4.3499999] yes=1,no=2,missing=1
	1:leaf=-0.121782899
	2:[f8<1578.5] yes=3,no=4,missing=3
		3:leaf=-0.0396374948
		4:[f7<220] yes=5,no=6,missing=5
			5:leaf=0.0888896883
			6:[f5<8.49499989] yes=7,no=8,missing=7
				7:leaf=-0.0270906724
				8:leaf=0.0631510019
booster[80]:
0:[f1<902.5] yes=1,no=2,missing=1
	1:[f6<62.5] yes=3,no=4,missing=3
		3:leaf=-0.0839390606
		4:[f14<18.5] yes=5,no=6,missing=5
			5:leaf=-0.0599710457
			6:[f5<3.67000008] yes=7,no=8,missing=7
				7:[f1<711] yes=9,no=10,missing=9
					9:[f1<195] yes=11,no=12,missing=11
						11:leaf=0.02631131
						12:leaf=0.117932677
					10:leaf=0.00493068388
				8:leaf=-0.0436358824
	2:leaf=-0.0979380831
booster[81]:
0:[f3<21.1599998] yes=1,no=2,missing=1
	1:leaf=-0.112496711
	2:[f4<8.69499969] yes=3,no=4,missing=3
		3:[f2<33] yes=5,no=6,missing=5
			5:[f2<22.3649998] yes=7,no=8,missing=7
				7:leaf=-0.0027664674
				8:leaf=0.110866912
			6:[f0<273] yes=9,no=10,missing=9
				9:leaf=-0.100514866
				10:leaf=-0.0217402279
		4:leaf=0.0946906358
booster[82]:
0:[f8<678] yes=1,no=2,missing=1
	1:[f5<1.625] yes=3,no=4,missing=3
		3:[f0<45.5] yes=5,no=6,missing=5
			5:leaf=-0.0318201073
			6:leaf=0.119143382
		4:[f7<605.5] yes=7,no=8,missing=7
			7:[f11<9.5] yes=9,no=10,missing=9
				9:leaf=-0.103640772
				10:leaf=0.0247218888
			8:leaf=0.082391277
	2:leaf=-0.112722479
booster[83]:
0:[f1<589.5] yes=1,no=2,missing=1
	1:leaf=-0.108663462
	2:[f3<28.0799999] yes=3,no=4,missing=3
		3:[f11<61.5] yes=5,no=6,missing=5
			5:[f0<228] yes=7,no=8,missing=7
				7:[f3<10.9899998] yes=11,no=12,missing=11
					11:leaf=0.0750763491
					12:leaf=0.0053904322
				8:leaf=-0.0453655384
			6:[f4<3.86999989] yes=9,no=10,missing=9
				9:leaf=0.110165447
				10:leaf=0.0181556419
		4:leaf=-0.0843862742
booster[84]:
0:[f1<902.5] yes=1,no=2,missing=1
	1:leaf=-0.116945848
	2:[f5<5.11999989] yes=3,no=4,missing=3
		3:leaf=-0.0491737016
		4:[f11<327] yes=5,no=6,missing=5
			5:leaf=0.00140794867
			6:[f5<7.88999987] yes=7,no=8,missing=7
				7:leaf=0.0222084485
				8:leaf=0.0959847644
booster[85]:
0:[f12<0.675000012] yes=1,no=2,missing=1
	1:[f5<1.625] yes=3,no=4,missing=3
		3:leaf=-0.056205567
		4:[f6<508.5] yes=7,no=8,missing=7
			7:[f2<26.7800007] yes=9,no=10,missing=9
				9:leaf=0.109844305
				10:[f5<1.71500003] yes=11,no=12,missing=11
					11:leaf=0.0779807791
					12:[f2<31.3100014] yes=13,no=14,missing=13
						13:leaf=0.00954426453
						14:leaf=-0.0559753664
			8:leaf=-0.0290841144
	2:[f6<231] yes=5,no=6,missing=5
		5:leaf=-0.00481296936
		6:leaf=-0.0947554335
booster[86]:
0:[f3<21.1599998] yes=1,no=2,missing=1
	1:leaf=-0.106446676
	2:[f4<8.69499969] yes=3,no=4,missing=3
		3:[f2<33] yes=5,no=6,missing=5
			5:[f13<7.6500001] yes=7,no=8,missing=7
				7:leaf=-0.00593072828
				8:leaf=0.100600846
			6:[f0<273] yes=9,no=10,missing=9
				9:leaf=-0.0940872207
				10:leaf=-0.0198596157
		4:leaf=0.0885295197
booster[87]:
0:[f8<324.5] yes=1,no=2,missing=1
	1:[f0<60.5] yes=3,no=4,missing=3
		3:[f15<0.5] yes=7,no=8,missing=7
			7:leaf=0.0862311199
			8:leaf=-0.0654659718
		4:[f8<165.5] yes=9,no=10,missing=9
			9:leaf=0.0281749945
			10:leaf=0.113045931
	2:[f13<2.80499983] yes=5,no=6,missing=5
		5:leaf=0.0152804507
		6:leaf=-0.112303607
booster[88]:
0:[f3<10.5699997] yes=1,no=2,missing=1
	1:[f1<628.5] yes=3,no=4,missing=3
		3:leaf=-0.0327096246
		4:[f11<44] yes=7,no=8,missing=7
			7:leaf=0.0195589531
			8:leaf=0.114548169
	2:[f1<672.5] yes=5,no=6,missing=5
		5:leaf=-0.104517087
		6:[f0<300.5] yes=9,no=10,missing=9
			9:leaf=0.0535652973
			10:[f1<1307.5] yes=11,no=12,missing=11
				11:leaf=-0.0869746953
				12:leaf=0.00144478912
booster[89]:
0:[f12<1.72500002] yes=1,no=2,missing=1
	1:[f8<1376] yes=3,no=4,missing=3
		3:leaf=-0.110063411
		4:leaf=-0.0245299228
	2:[f8<1578.5] yes=5,no=6,missing=5
		5:leaf=-0.0175579302
		6:[f4<8.72500038] yes=7,no=8,missing=7
			7:leaf=0.0778195262
			8:leaf=0.0141499778
booster[90]:
0:[f5<3.67000008] yes=1,no=2,missing=1
	1:[f5<1.625] yes=3,no=4,missing=3
		3:leaf=-0.0580390431
		4:[f7<136.5] yes=5,no=6,missing=5
			5:[f0<276] yes=7,no=8,missing=7
				7:leaf=-0.0452910736
				8:leaf=0.0318606384
			6:[f1<191.5] yes=9,no=10,missing=9
				9:[f0<71.5] yes=11,no=12,missing=11
					11:leaf=0.0363577344
					12:leaf=-0.015044692
				10:leaf=0.0993218496
	2:leaf=-0.0752620101
booster[91]:
0:[f3<21.1599998] yes=1,no=2,missing=1
	1:leaf=-0.100918122
	2:[f1<1418.5] yes=3,no=4,missing=3
		3:[f4<8.69499969] yes=5,no=6,missing=5
			5:[f2<33] yes=7,no=8,missing=7
				7:[f10<2.5] yes=9,no=10,missing=9
					9:leaf=0.106489226
					10:leaf=0.0124109806
				8:leaf=-0.06482099
			6:leaf=0.0998677835
		4:leaf=-0.0473400801
booster[92]:
0:[f8<678] yes=1,no=2,missing=1
	1:[f4<0.88499999] yes=3,no=4,missing=3
		3:leaf=-0.0285795126
		4:[f5<1.625] yes=5,no=6,missing=5
			5:leaf=0.10711389
			6:[f7<605.5] yes=7,no=8,missing=7
				7:[f2<39.3850021] yes=9,no=10,missing=9
					9:leaf=0.0213964507
					10:leaf=-0.0836652368
				8:leaf=0.0720082745
	2:leaf=-0.102602392
booster[93]:
0:[f3<10.5699997] yes=1,no=2,missing=1
	1:[f1<628.5] yes=3,no=4,missing=3
		3:leaf=-0.0303658042
		4:[f11<44] yes=7,no=8,missing=7
			7:leaf=0.0189877041
			8:leaf=0.109447636
	2:[f6<491.5] yes=5,no=6,missing=5
		5:[f7<184] yes=9,no=10,missing=9
			9:leaf=0.00444580009
			10:leaf=-0.1017415
		6:leaf=0.0148782814
booster[94]:
0:[f4<4.3499999] yes=1,no=2,missing=1
	1:leaf=-0.106901087
	2:[f7<220] yes=3,no=4,missing=3
		3:leaf=0.0785644427
		4:[f11<327] yes=5,no=6,missing=5
			5:leaf=-0.0832047835
			6:leaf=0.0534336083
booster[95]:
0:[f12<0.675000012] yes=1,no=2,missing=1
	1:[f14<41.5] yes=3,no=4,missing=3
		3:[f3<14.2350006] yes=7,no=8,missing=7
			7:leaf=-0.0692745
			8:leaf=0.0146039566
		4:[f1<195] yes=9,no=10,missing=9
			9:leaf=-0.00926591642
			10:[f1<636.5] yes=11,no=12,missing=11
				11:leaf=0.108942218
				12:[f0<218.5] yes=13,no=14,missing=13
					13:leaf=-0.025326306
					14:leaf=0.0677251667
	2:[f6<231] yes=5,no=6,missing=5
		5:leaf=-0.00582675822
		6:leaf=-0.085873954
booster[96]:
0:[f3<21.1599998] yes=1,no=2,missing=1
	1:leaf=-0.0955749899
	2:[f1<1394] yes=3,no=4,missing=3
		3:[f14<29] yes=5,no=6,missing=5
			5:leaf=0.0944995731
			6:[f5<5.88500023] yes=7,no=8,missing=7
				7:leaf=-0.0538280085
				8:[f11<317.5] yes=9,no=10,missing=9
					9:leaf=0.0945787653
					10:leaf=-0.0145765292
		4:leaf=-0.0392671973
booster[97]:
0:[f8<324.5] yes=1,no=2,missing=1
	1:[f0<60.5] yes=3,no=4,missing=3
		3:[f2<41.3050003] yes=7,no=8,missing=7
			7:leaf=-0.0605742522
			8:leaf=0.0528757386
		4:[f2<39.3850021] yes=9,no=10,missing=9
			9:leaf=0.1041876
			10:leaf=0.0205656439
	2:[f4<1.74000001] yes=5,no=6,missing=5
		5:leaf=0.00334651233
		6:leaf=-0.101637565
booster[98]:
0:[f1<589.5] yes=1,no=2,missing=1
	1:leaf=-0.0926896706
	2:[f3<10.5950003] yes=3,no=4,missing=3
		3:[f11<44] yes=5,no=6,missing=5
			5:leaf=0.0231857114
			6:leaf=0.0934486687
		4:[f0<262.5] yes=7,no=8,missing=7
			7:leaf=0.0328628346
			8:[f1<1307.5] yes=9,no=10,missing=9
				9:leaf=-0.0860006362
				10:leaf=0.00873024669
booster[99]:
0:[f4<4.3499999] yes=1,no=2,missing=1
	1:leaf=-0.101441689
	2:[f7<220] yes=3,no=4,missing=3
		3:leaf=0.0725280792
		4:[f11<327] yes=5,no=6,missing=5
			5:leaf=-0.0781338811
			6:leaf=0.0466850773
booster[100]:
0:[f3<31.5900002] yes=1,no=2,missing=1
	1:[f5<1.625] yes=3,no=4,missing=3
		3:leaf=-0.0488854423
		4:[f11<61.5] yes=5,no=6,missing=5
			5:[f4<3.18499994] yes=7,no=8,missing=7
				7:leaf=0.0845933408
				8:leaf=-0.0118214702
			6:leaf=-0.0336404853
	2:leaf=-0.0806064978
booster[101]:
0:[f3<21.1599998] yes=1,no=2,missing=1
	1:leaf=-0.089980863
	2:[f4<8.69499969] yes=3,no=4,missing=3
		3:[f2<33] yes=5,no=6,missing=5
			5:[f2<28.2900009] yes=7,no=8,missing=7
				7:leaf=0.00504979584
				8:leaf=0.0926420838
			6:leaf=-0.0684397966
		4:leaf=0.0733715296
booster[102]:
0:[f8<678] yes=1,no=2,missing=1
	1:[f4<0.88499999] yes=3,no=4,missing=3
		3:leaf=-0.0289307833
		4:[f10<2.5] yes=5,no=6,missing=5
			5:leaf=0.0964311138
			6:[f11<9.5] yes=7,no=8,missing=7
				7:leaf=-0.0712479427
				8:leaf=0.0519777052
	2:leaf=-0.0924748704
booster[103]:
0:[f13<9.70499992] yes=1,no=2,missing=1
	1:[f11<28.5] yes=3,no=4,missing=3
		3:leaf=-0.0550108179
		4:[f0<315.5] yes=5,no=6,missing=5
			5:[f1<710.5] yes=7,no=8,missing=7
				7:leaf=0.0205257535
				8:leaf=0.101158269
			6:leaf=-0.0150979096
	2:leaf=-0.0860479772
booster[104]:
0:[f4<4.3499999] yes=1,no=2,missing=1
	1:leaf=-0.0960696265
	2:[f7<220] yes=3,no=4,missing=3
		3:leaf=0.0657637268
		4:[f2<48.8899994] yes=5,no=6,missing=5
			5:leaf=-0.0355694331
			6:leaf=0.0317387804
booster[105]:
0:[f1<902.5] yes=1,no=2,missing=1
	1:[f14<18.5] yes=3,no=4,missing=3
		3:leaf=-0.0538134389
		4:[f13<7.07000017] yes=5,no=6,missing=5
			5:[f7<148] yes=7,no=8,missing=7
				7:leaf=0.0137582943
				8:leaf=0.0976463482
			6:[f10<2.5] yes=9,no=10,missing=9
				9:leaf=-0.0620876364
				10:[f5<1.72500002] yes=11,no=12,missing=11
					11:leaf=0.0729591697
					12:leaf=-0.0236123726
	2:leaf=-0.0764819384
booster[106]:
0:[f3<21.1599998] yes=1,no=2,missing=1
	1:leaf=-0.0851417333
	2:[f1<1307.5] yes=3,no=4,missing=3
		3:[f13<7.63500023] yes=5,no=6,missing=5
			5:leaf=-0.013567836
			6:[f0<261] yes=7,no=8,missing=7
				7:leaf=-0.00252991682
				8:leaf=0.101000071
		4:leaf=-0.0277168714
booster[107]:
0:[f8<324.5] yes=1,no=2,missing=1
	1:[f0<60.5] yes=3,no=4,missing=3
		3:[f2<41.3050003] yes=7,no=8,missing=7
			7:leaf=-0.0534508042
			8:leaf=0.0436007902
		4:[f2<36.4150009] yes=9,no=10,missing=9
			9:leaf=0.0937778726
			10:leaf=0.0243257675
	2:[f2<17.1100006] yes=5,no=6,missing=5
		5:leaf=-0.00388960564
		6:leaf=-0.0919509456
booster[108]:
0:[f3<10.5699997] yes=1,no=2,missing=1
	1:[f1<710.5] yes=3,no=4,missing=3
		3:leaf=-4.01303478e-05
		4:leaf=0.0778185129
	2:[f6<491.5] yes=5,no=6,missing=5
		5:[f7<205] yes=7,no=8,missing=7
			7:leaf=-0.00956858788
			8:leaf=-0.0914091468
		6:leaf=0.0119648119
booster[109]:
0:[f12<1.72500002] yes=1,no=2,missing=1
	1:leaf=-0.0791895613
	2:[f1<1483] yes=3,no=4,missing=3
		3:[f7<326] yes=5,no=6,missing=5
			5:leaf=-0.0296166576
			6:leaf=0.0281979442
		4:leaf=0.0724530816
booster[110]:
0:[f5<3.67000008] yes=1,no=2,missing=1
	1:[f5<1.625] yes=3,no=4,missing=3
		3:leaf=-0.0454653092
		4:[f11<61.5] yes=5,no=6,missing=5
			5:[f14<41.5] yes=7,no=8,missing=7
				7:leaf=-0.000994456583
				8:[f0<98.5] yes=9,no=10,missing=9
					9:leaf=0.0106963525
					10:leaf=0.093344532
			6:leaf=-0.0163078979
	2:leaf=-0.062841244
booster[111]:
0:[f3<21.1599998] yes=1,no=2,missing=1
	1:leaf=-0.0803510621
	2:[f6<479.5] yes=3,no=4,missing=3
		3:[f12<3.7249999] yes=5,no=6,missing=5
			5:[f13<20.125] yes=7,no=8,missing=7
				7:leaf=0.0958490446
				8:leaf=-0.0103786346
			6:leaf=-0.00879174285
		4:leaf=-0.0297314525
booster[112]:
0:[f11<21.5] yes=1,no=2,missing=1
	1:[f4<0.904999971] yes=3,no=4,missing=3
		3:leaf=-0.033758264
		4:[f10<2.5] yes=5,no=6,missing=5
			5:leaf=0.0930604339
			6:[f2<39.3850021] yes=7,no=8,missing=7
				7:leaf=0.0548747256
				8:leaf=-0.056777522
	2:leaf=-0.0796042383
booster[113]:
0:[f11<28.5] yes=1,no=2,missing=1
	1:leaf=-0.0717572942
	2:[f0<264.5] yes=3,no=4,missing=3
		3:[f7<156] yes=5,no=6,missing=5
			5:leaf=0.0898566395
			6:leaf=0.0219104514
		4:[f1<1342] yes=7,no=8,missing=7
			7:leaf=-0.0589321926
			8:leaf=0.0309837293
booster[114]:
0:[f1<902.5] yes=1,no=2,missing=1
	1:leaf=-0.087682642
	2:[f3<56.8649979] yes=3,no=4,missing=3
		3:leaf=-0.0050961962
		4:leaf=0.0512088165
booster[115]:
0:[f5<3.67000008] yes=1,no=2,missing=1
	1:[f5<1.61500001] yes=3,no=4,missing=3
		3:leaf=-0.0411026031
		4:[f1<711] yes=5,no=6,missing=5
			5:[f10<2.5] yes=7,no=8,missing=7
				7:leaf=0.00103238877
				8:leaf=0.0779722035
			6:leaf=-0.0111923721
	2:leaf=-0.0578231178
booster[116]:
0:[f12<0.474999994] yes=1,no=2,missing=1
	1:leaf=-0.0745353103
	2:[f7<413.5] yes=3,no=4,missing=3
		3:[f11<381] yes=5,no=6,missing=5
			5:leaf=-0.0487741493
			6:leaf=0.0351487473
		4:leaf=0.0829716623
booster[117]:
0:[f8<324.5] yes=1,no=2,missing=1
	1:[f0<60.5] yes=3,no=4,missing=3
		3:[f3<24.7700005] yes=7,no=8,missing=7
			7:leaf=-0.0522434004
			8:leaf=0.0364994183
		4:leaf=0.0745642707
	2:[f2<19.2099991] yes=5,no=6,missing=5
		5:leaf=-0.0104590952
		6:leaf=-0.0812749416
booster[118]:
0:[f3<10.5699997] yes=1,no=2,missing=1
	1:[f11<45.5] yes=3,no=4,missing=3
		3:leaf=0.00351349637
		4:leaf=0.073770754
	2:[f6<491.5] yes=5,no=6,missing=5
		5:[f7<214] yes=7,no=8,missing=7
			7:leaf=-0.0104303062
			8:leaf=-0.0826215148
		6:leaf=0.0103338659
booster[119]:
0:[f5<5.23499966] yes=1,no=2,missing=1
	1:leaf=-0.0761688128
	2:[f4<8.69499969] yes=3,no=4,missing=3
		3:[f13<7.6500001] yes=5,no=6,missing=5
			5:leaf=0.0711546466
			6:leaf=0.00861083344
		4:leaf=-0.0182112884
booster[120]:
0:[f12<0.675000012] yes=1,no=2,missing=1
	1:[f14<41.5] yes=3,no=4,missing=3
		3:[f3<13.7350006] yes=5,no=6,missing=5
			5:leaf=-0.0531905815
			6:leaf=0.00419991976
		4:[f13<6.83500004] yes=7,no=8,missing=7
			7:leaf=0.0784715116
			8:[f1<114] yes=9,no=10,missing=9
				9:leaf=0.0154132107
				10:leaf=-0.00998466648
	2:leaf=-0.0496354513
booster[121]:
0:[f12<0.474999994] yes=1,no=2,missing=1
	1:leaf=-0.0703996792
	2:[f7<413.5] yes=3,no=4,missing=3
		3:[f11<381] yes=5,no=6,missing=5
			5:leaf=-0.0430894494
			6:leaf=0.0309494548
		4:leaf=0.0757277161
booster[122]:
0:[f8<324.5] yes=1,no=2,missing=1
	1:[f0<72.5] yes=3,no=4,missing=3
		3:[f3<24.75] yes=7,no=8,missing=7
			7:leaf=-0.0407616161
			8:leaf=0.0481507331
		4:leaf=0.0837042555
	2:[f7<184] yes=5,no=6,missing=5
		5:leaf=-0.0117281424
		6:leaf=-0.0761275589
booster[123]:
0:[f3<10.5699997] yes=1,no=2,missing=1
	1:[f11<45.5] yes=3,no=4,missing=3
		3:leaf=0.00232022326
		4:leaf=0.0690252855
	2:[f6<491.5] yes=5,no=6,missing=5
		5:[f7<226.5] yes=7,no=8,missing=7
			7:leaf=-0.0116660632
			8:leaf=-0.0773471445
		6:leaf=0.00790089369
booster[124]:
0:[f12<1.72500002] yes=1,no=2,missing=1
	1:leaf=-0.0674848109
	2:[f1<1464] yes=3,no=4,missing=3
		3:leaf=-0.00260019489
		4:leaf=0.0613477193
booster[125]:
0:[f5<3.67000008] yes=1,no=2,missing=1
	1:[f5<1.625] yes=3,no=4,missing=3
		3:leaf=-0.0392007828
		4:[f11<61.5] yes=5,no=6,missing=5
			5:[f2<30.1900005] yes=7,no=8,missing=7
				7:leaf=0.0727246106
				8:leaf=0.00998781901
			6:leaf=-0.0138855921
	2:leaf=-0.0539217517
booster[126]:
0:[f4<8.69499969] yes=1,no=2,missing=1
	1:[f2<31.7350006] yes=3,no=4,missing=3
		3:[f2<21.5400009] yes=5,no=6,missing=5
			5:leaf=-0.0525567085
			6:leaf=0.050191924
		4:leaf=-0.0645185187
	2:leaf=0.0573419929
booster[127]:
0:[f11<21.5] yes=1,no=2,missing=1
	1:[f13<19.8549995] yes=3,no=4,missing=3
		3:leaf=0.0600505434
		4:[f3<24.5649986] yes=5,no=6,missing=5
			5:leaf=-0.0556128733
			6:leaf=0.0502450354
	2:leaf=-0.0699876547
booster[128]:
0:[f3<10.5699997] yes=1,no=2,missing=1
	1:[f1<710.5] yes=3,no=4,missing=3
		3:leaf=-0.00071477273
		4:leaf=0.0656858236
	2:[f6<491.5] yes=5,no=6,missing=5
		5:leaf=-0.0562550686
		6:leaf=0.0069945273
booster[129]:
0:[f8<1580] yes=1,no=2,missing=1
	1:leaf=-0.060960602
	2:[f7<220] yes=3,no=4,missing=3
		3:leaf=0.0483241268
		4:leaf=0.00218361034
booster[130]:
0:[f12<0.665000021] yes=1,no=2,missing=1
	1:[f14<41.5] yes=3,no=4,missing=3
		3:leaf=-0.0306600351
		4:[f0<199] yes=5,no=6,missing=5
			5:[f12<0.254999995] yes=7,no=8,missing=7
				7:leaf=0.0433472767
				8:leaf=-0.0312598124
			6:leaf=0.078416504
	2:leaf=-0.0440946184
booster[131]:
0:[f5<5.88500023] yes=1,no=2,missing=1
	1:[f2<29.3149986] yes=3,no=4,missing=3
		3:leaf=-0.0821421519
		4:leaf=0.0191094354
	2:[f11<327] yes=5,no=6,missing=5
		5:leaf=0.0674178973
		6:leaf=-0.0136768501
booster[132]:
0:[f8<324.5] yes=1,no=2,missing=1
	1:[f0<60.5] yes=3,no=4,missing=3
		3:leaf=-0.00986979716
		4:leaf=0.0665942803
	2:leaf=-0.0550559089
booster[133]:
0:[f11<28.5] yes=1,no=2,missing=1
	1:leaf=-0.0589893647
	2:[f0<264.5] yes=3,no=4,missing=3
		3:[f7<156] yes=5,no=6,missing=5
			5:leaf=0.0803699493
			6:leaf=0.0213035103
		4:[f1<1140.5] yes=7,no=8,missing=7
			7:leaf=-0.0495477468
			8:leaf=0.0111564323
booster[134]:
0:[f12<1.72500002] yes=1,no=2,missing=1
	1:leaf=-0.0609123074
	2:[f1<1464] yes=3,no=4,missing=3
		3:leaf=-0.00316791842
		4:leaf=0.0560872965
booster[135]:
0:[f1<501] yes=1,no=2,missing=1
	1:[f1<195] yes=3,no=4,missing=3
		3:leaf=-0.0143705262
		4:leaf=0.0807277411
	2:[f0<199] yes=5,no=6,missing=5
		5:leaf=-0.0606138147
		6:[f11<61] yes=7,no=8,missing=7
			7:leaf=0.0514069423
			8:leaf=-0.044508215
booster[136]:
0:[f4<8.69499969] yes=1,no=2,missing=1
	1:[f2<31.7350006] yes=3,no=4,missing=3
		3:[f2<22.3649998] yes=5,no=6,missing=5
			5:leaf=-0.0370030925
			6:leaf=0.0461571701
		4:leaf=-0.0631427914
	2:leaf=0.0511733256
booster[137]:
0:[f8<324.5] yes=1,no=2,missing=1
	1:[f14<29] yes=3,no=4,missing=3
		3:leaf=-0.018991759
		4:[f12<0.310000002] yes=5,no=6,missing=5
			5:leaf=-0.00425203983
			6:leaf=0.0832839087
	2:leaf=-0.0506354719
booster[138]:
0:[f3<10.5699997] yes=1,no=2,missing=1
	1:[f6<450] yes=3,no=4,missing=3
		3:leaf=0.0016052397
		4:leaf=0.0658211112
	2:[f6<491.5] yes=5,no=6,missing=5
		5:leaf=-0.051393684
		6:leaf=0.00796741154
booster[139]:
0:[f5<5.23499966] yes=1,no=2,missing=1
	1:leaf=-0.0639232621
	2:[f12<3.81500006] yes=3,no=4,missing=3
		3:leaf=-0.00771978218
		4:leaf=0.0506709591
booster[140]:
0:[f1<710.5] yes=1,no=2,missing=1
	1:[f0<179.5] yes=3,no=4,missing=3
		3:[f11<9.5] yes=5,no=6,missing=5
			5:leaf=0.0355793759
			6:[f13<7.31500006] yes=7,no=8,missing=7
				7:leaf=0.00377715868
				8:leaf=-0.0533314832
		4:leaf=0.0614587367
	2:leaf=-0.0388581082
booster[141]:
0:[f5<5.88500023] yes=1,no=2,missing=1
	1:[f2<29.3149986] yes=3,no=4,missing=3
		3:leaf=-0.076853618
		4:leaf=0.0188797731
	2:[f11<327] yes=5,no=6,missing=5
		5:leaf=0.0618606061
		6:leaf=-0.00939237792
booster[142]:
0:[f11<19.5] yes=1,no=2,missing=1
	1:[f2<31.3699989] yes=3,no=4,missing=3
		3:leaf=0.0607720912
		4:[f3<24.5649986] yes=5,no=6,missing=5
			5:leaf=-0.0493269712
			6:leaf=0.0344398431
	2:leaf=-0.0556699745
booster[143]:
0:[f3<10.5699997] yes=1,no=2,missing=1
	1:[f1<710.5] yes=3,no=4,missing=3
		3:leaf=-0.00154126727
		4:leaf=0.0593803562
	2:[f6<491.5] yes=5,no=6,missing=5
		5:leaf=-0.0477169566
		6:leaf=0.00699909078
booster[144]:
0:[f8<1580] yes=1,no=2,missing=1
	1:leaf=-0.0526974984
	2:[f13<7.6500001] yes=3,no=4,missing=3
		3:leaf=0.0453229062
		4:leaf=-0.00332174939
booster[145]:
0:[f5<3.67000008] yes=1,no=2,missing=1
	1:[f5<1.625] yes=3,no=4,missing=3
		3:leaf=-0.0362277813
		4:[f10<2.5] yes=5,no=6,missing=5
			5:leaf=-0.00961904973
			6:[f3<10.5950003] yes=7,no=8,missing=7
				7:leaf=0.00520464499
				8:leaf=0.0688131005
	2:leaf=-0.0482119061
booster[146]:
0:[f4<8.69499969] yes=1,no=2,missing=1
	1:[f2<31.7350006] yes=3,no=4,missing=3
		3:[f2<22.3649998] yes=5,no=6,missing=5
			5:leaf=-0.0294103846
			6:leaf=0.042659685
		4:leaf=-0.0601687543
	2:leaf=0.0471470505
booster[147]:
0:[f8<324.5] yes=1,no=2,missing=1
	1:[f0<60.5] yes=3,no=4,missing=3
		3:leaf=-0.0106416354
		4:leaf=0.055824656
	2:leaf=-0.0454028659
booster[148]:
0:[f3<10.5699997] yes=1,no=2,missing=1
	1:[f6<450] yes=3,no=4,missing=3
		3:leaf=-0.00104238605
		4:leaf=0.0579394363
	2:[f6<491.5] yes=5,no=6,missing=5
		5:leaf=-0.0431011207
		6:leaf=0.00588836567
booster[149]:
0:[f12<3.7249999] yes=1,no=2,missing=1
	1:[f6<485.5] yes=3,no=4,missing=3
		3:leaf=-0.07638897
		4:leaf=0.0171198286
	2:leaf=0.0378627256
booster[150]:
0:[f12<0.675000012] yes=1,no=2,missing=1
	1:[f14<41.5] yes=3,no=4,missing=3
		3:leaf=-0.0304026473
		4:[f13<6.76500034] yes=5,no=6,missing=5
			5:leaf=0.0685820058
			6:leaf=0.00622938061
	2:leaf=-0.0441053398
booster[151]:
0:[f5<5.88500023] yes=1,no=2,missing=1
	1:[f7<346.5] yes=3,no=4,missing=3
		3:leaf=-0.0541223623
		4:leaf=0.00189499545
	2:[f11<327] yes=5,no=6,missing=5
		5:leaf=0.0563112944
		6:leaf=-0.0079526389
booster[152]:
0:[f8<324.5] yes=1,no=2,missing=1
	1:[f0<60.5] yes=3,no=4,missing=3
		3:leaf=-0.00896523055
		4:leaf=0.0531373881
	2:leaf=-0.0423214696
booster[153]:
0:[f1<630.5] yes=1,no=2,missing=1
	1:leaf=-0.043608468
	2:[f0<224.5] yes=3,no=4,missing=3
		3:leaf=0.0608145669
		4:[f1<905] yes=5,no=6,missing=5
			5:leaf=-0.03053567
			6:leaf=0.0139765246
booster[154]:
0:[f12<3.7249999] yes=1,no=2,missing=1
	1:[f6<485.5] yes=3,no=4,missing=3
		3:leaf=-0.0730058178
		4:leaf=0.0149959046
	2:leaf=0.034817148
booster[155]:
0:[f1<501] yes=1,no=2,missing=1
	1:[f1<195] yes=3,no=4,missing=3
		3:leaf=-0.0100583937
		4:leaf=0.0703645945
	2:[f14<75] yes=5,no=6,missing=5
		5:leaf=-0.0556629561
		6:leaf=0.00972365588
booster[156]:
0:[f5<5.88500023] yes=1,no=2,missing=1
	1:leaf=-0.0322008133
	2:[f11<327] yes=3,no=4,missing=3
		3:leaf=0.0520250387
		4:leaf=-0.00662187021
booster[157]:
0:[f8<324.5] yes=1,no=2,missing=1
	1:[f14<29] yes=3,no=4,missing=3
		3:leaf=-0.0179679431
		4:leaf=0.0436871201
	2:leaf=-0.0387782454
booster[158]:
0:[f7<136.5] yes=1,no=2,missing=1
	1:leaf=0.0372439288
	2:[f15<0.5] yes=3,no=4,missing=3
		3:leaf=0.0204543844
		4:leaf=-0.0480587631
booster[159]:
0:[f12<1.72500002] yes=1,no=2,missing=1
	1:leaf=-0.0490435623
	2:[f5<7.88999987] yes=3,no=4,missing=3
		3:leaf=-0.00596391829
		4:leaf=0.0386756621
booster[160]:
0:[f12<0.665000021] yes=1,no=2,missing=1
	1:[f14<41.5] yes=3,no=4,missing=3
		3:leaf=-0.0283030253
		4:[f13<6.76500034] yes=5,no=6,missing=5
			5:leaf=0.0626586527
			6:leaf=0.0095360186
	2:leaf=-0.0408487916
booster[161]:
0:[f5<5.88500023] yes=1,no=2,missing=1
	1:leaf=-0.0290265791
	2:[f2<45.4850006] yes=3,no=4,missing=3
		3:leaf=0.044876501
		4:leaf=-0.00740920752
booster[162]:
0:[f5<1.625] yes=1,no=2,missing=1
	1:leaf=0.0298445802
	2:[f7<554] yes=3,no=4,missing=3
		3:leaf=-0.0504788719
		4:leaf=0.00442214822
booster[163]:
0:[f3<10.5699997] yes=1,no=2,missing=1
	1:leaf=0.0335496664
	2:[f6<491.5] yes=3,no=4,missing=3
		3:leaf=-0.0393241458
		4:leaf=0.00640410278
booster[164]:
0:[f12<3.7249999] yes=1,no=2,missing=1
	1:leaf=-0.0350766443
	2:leaf=0.0293103885
booster[165]:
0:[f12<0.675000012] yes=1,no=2,missing=1
	1:[f14<41.5] yes=3,no=4,missing=3
		3:leaf=-0.0256756507
		4:[f13<6.61999989] yes=5,no=6,missing=5
			5:leaf=0.0595102124
			6:leaf=0.00813993532
	2:leaf=-0.0387406386
booster[166]:
0:[f7<413.5] yes=1,no=2,missing=1
	1:[f11<381] yes=3,no=4,missing=3
		3:leaf=-0.0566280559
		4:leaf=0.0325392932
	2:leaf=0.0373204201
booster[167]:
0:[f14<22.5] yes=1,no=2,missing=1
	1:leaf=0.0372935422
	2:[f7<417] yes=3,no=4,missing=3
		3:leaf=-0.0587964542
		4:leaf=0.0206160396
booster[168]:
0:[f7<136.5] yes=1,no=2,missing=1
	1:leaf=0.0335050486
	2:[f2<23.7049999] yes=3,no=4,missing=3
		3:leaf=-0.0522728264
		4:leaf=0.0131429713
booster[169]:
0:[f8<1580] yes=1,no=2,missing=1
	1:leaf=-0.0438686758
	2:[f13<7.6500001] yes=3,no=4,missing=3
		3:leaf=0.0402828977
		4:leaf=-0.0068027447
booster[170]:
0:[f1<501] yes=1,no=2,missing=1
	1:[f12<0.254999995] yes=3,no=4,missing=3
		3:leaf=0.0555779785
		4:leaf=-0.00305958674
	2:[f0<211.5] yes=5,no=6,missing=5
		5:leaf=-0.0526877679
		6:leaf=0.00977049023
booster[171]:
0:[f7<413.5] yes=1,no=2,missing=1
	1:[f11<381] yes=3,no=4,missing=3
		3:leaf=-0.0526883341
		4:leaf=0.0296401624
	2:leaf=0.033382047
booster[172]:
0:[f5<1.625] yes=1,no=2,missing=1
	1:leaf=0.0279280227
	2:[f7<554] yes=3,no=4,missing=3
		3:leaf=-0.046347633
		4:leaf=0.0017292843
booster[173]:
0:[f3<19.7449989] yes=1,no=2,missing=1
	1:[f11<64] yes=3,no=4,missing=3
		3:[f0<199] yes=5,no=6,missing=5
			5:leaf=0.0219853818
			6:leaf=-0.0348629132
		4:leaf=0.0569228046
	2:leaf=-0.0353941545
booster[174]:
0:[f11<328] yes=1,no=2,missing=1
	1:leaf=-0.0376136452
	2:leaf=0.023498727
booster[175]:
0:[f12<0.665000021] yes=1,no=2,missing=1
	1:[f14<41.5] yes=3,no=4,missing=3
		3:leaf=-0.0229851268
		4:[f13<6.47500038] yes=5,no=6,missing=5
			5:leaf=0.0553762801
			6:leaf=0.00693729566
	2:leaf=-0.0355089642
booster[176]:
0:[f5<5.88500023] yes=1,no=2,missing=1
	1:leaf=-0.0257889163
	2:[f2<45.4850006] yes=3,no=4,missing=3
		3:leaf=0.0417026915
		4:leaf=-0.00667564478
booster[177]:
0:[f5<1.625] yes=1,no=2,missing=1
	1:leaf=0.0262005515
	2:[f5<1.79499996] yes=3,no=4,missing=3
		3:leaf=-0.0381783731
		4:leaf=-0.000165845442
booster[178]:
0:[f6<454.5] yes=1,no=2,missing=1
	1:[f7<151] yes=3,no=4,missing=3
		3:leaf=0.00625574915
		4:leaf=-0.0441793539
	2:leaf=0.0290494431
booster[179]:
0:[f8<1580] yes=1,no=2,missing=1
	1:leaf=-0.0414837673
	2:[f7<220] yes=3,no=4,missing=3
		3:leaf=0.0336511359
		4:leaf=-0.00392271252
booster[180]:
0:[f15<0.5] yes=1,no=2,missing=1
	1:leaf=-0.0293625277
	2:[f1<710.5] yes=3,no=4,missing=3
		3:[f11<18.5] yes=5,no=6,missing=5
			5:leaf=-0.00177959527
			6:leaf=0.065059565
		4:leaf=-0.0213042218
booster[181]:
0:[f7<413.5] yes=1,no=2,missing=1
	1:[f11<381] yes=3,no=4,missing=3
		3:leaf=-0.0497786887
		4:leaf=0.0279625244
	2:leaf=0.0332481302
booster[182]:
0:[f12<0.474999994] yes=1,no=2,missing=1
	1:[f5<1.625] yes=3,no=4,missing=3
		3:leaf=0.0525678247
		4:leaf=-0.0171201546
	2:leaf=-0.0342132673
booster[183]:
0:[f3<10.5699997] yes=1,no=2,missing=1
	1:leaf=0.0313664116
	2:[f1<905] yes=3,no=4,missing=3
		3:leaf=-0.0374940298
		4:leaf=0.00414254423
booster[184]:
0:[f0<341] yes=1,no=2,missing=1
	1:leaf=-0.036122825
	2:leaf=0.0228496492
booster[185]:
0:[f12<0.665000021] yes=1,no=2,missing=1
	1:[f14<41.5] yes=3,no=4,missing=3
		3:leaf=-0.0208623447
		4:[f13<6.47500038] yes=5,no=6,missing=5
			5:leaf=0.053222727
			6:leaf=0.00513018761
	2:leaf=-0.0350960791
booster[186]:
0:[f5<5.88500023] yes=1,no=2,missing=1
	1:leaf=-0.0234323367
	2:[f2<45.4850006] yes=3,no=4,missing=3
		3:leaf=0.0399712846
		4:leaf=-0.00795955863
booster[187]:
0:[f7<417] yes=1,no=2,missing=1
	1:leaf=-0.0275938343
	2:[f3<25.6900005] yes=3,no=4,missing=3
		3:leaf=0.000461493008
		4:leaf=0.034076646
booster[188]:
0:[f6<491.5] yes=1,no=2,missing=1
	1:[f3<11.2800007] yes=3,no=4,missing=3
		3:leaf=0.00958330929
		4:leaf=-0.0445110276
	2:leaf=0.0306152385
booster[189]:
0:[f12<3.30499983] yes=1,no=2,missing=1
	1:leaf=-0.0331299715
	2:leaf=0.0266669746
booster[190]:
0:[f1<501] yes=1,no=2,missing=1
	1:[f12<0.264999986] yes=3,no=4,missing=3
		3:leaf=0.0494603924
		4:leaf=-0.00515541155
	2:[f0<211.5] yes=5,no=6,missing=5
		5:leaf=-0.0483191796
		6:leaf=0.00913398061
booster[191]:
0:[f7<335.5] yes=1,no=2,missing=1
	1:leaf=-0.0221297182
	2:leaf=0.0249929
booster[192]:
0:[f8<324.5] yes=1,no=2,missing=1
	1:[f0<60.5] yes=3,no=4,missing=3
		3:leaf=-0.0160843283
		4:leaf=0.0433960073
	2:leaf=-0.0328598507
booster[193]:
0:[f15<0.5] yes=1,no=2,missing=1
	1:leaf=0.0342184231
	2:[f1<905] yes=3,no=4,missing=3
		3:leaf=-0.046145115
		4:leaf=0.0193496868
booster[194]:
0:[f11<328] yes=1,no=2,missing=1
	1:leaf=-0.0341174081
	2:leaf=0.0234632473
booster[195]:
0:[f1<501] yes=1,no=2,missing=1
	1:[f12<0.275000006] yes=3,no=4,missing=3
		3:leaf=0.0422754735
		4:leaf=-0.00125721982
	2:[f6<438.5] yes=5,no=6,missing=5
		5:leaf=-0.0447953716
		6:leaf=0.00784238428
booster[196]:
0:[f4<4.75500011] yes=1,no=2,missing=1
	1:leaf=-0.025896553
	2:[f5<7.88999987] yes=3,no=4,missing=3
		3:leaf=0.0401093252
		4:leaf=-0.00731871696
booster[197]:
0:[f6<62.5] yes=1,no=2,missing=1
	1:leaf=0.027339749
	2:[f3<23.6800003] yes=3,no=4,missing=3
		3:leaf=0.0162336007
		4:leaf=-0.0510058776
booster[198]:
0:[f7<136.5] yes=1,no=2,missing=1
	1:leaf=0.0289894976
	2:[f7<245.5] yes=3,no=4,missing=3
		3:leaf=-0.0455879495
		4:leaf=0.010464278
booster[199]:
0:[f0<341] yes=1,no=2,missing=1
	1:leaf=-0.033416234
	2:leaf=0.0219735876
booster[200]:
0:[f10<2.5] yes=1,no=2,missing=1
	1:leaf=-0.0276967231
	2:[f1<505] yes=3,no=4,missing=3
		3:leaf=0.0509256683
		4:leaf=-0.0210068375
booster[201]:
0:[f7<413.5] yes=1,no=2,missing=1
	1:[f11<381] yes=3,no=4,missing=3
		3:leaf=-0.0455883145
		4:leaf=0.0269147549
	2:leaf=0.0305392053
booster[202]:
0:[f7<417] yes=1,no=2,missing=1
	1:leaf=-0.0265227351
	2:leaf=0.0231230389
booster[203]:
0:[f3<10.5699997] yes=1,no=2,missing=1
	1:leaf=0.0266805943
	2:leaf=-0.0228660423
booster[204]:
0:[f3<58.1699982] yes=1,no=2,missing=1
	1:leaf=-0.0275464393
	2:leaf=0.0252366383
booster[205]:
0:[f10<2.5] yes=1,no=2,missing=1
	1:leaf=-0.0253974758
	2:[f6<300.5] yes=3,no=4,missing=3
		3:leaf=0.0443278514
		4:leaf=-0.0224636085
booster[206]:
0:[f7<335.5] yes=1,no=2,missing=1
	1:leaf=-0.0194647387
	2:leaf=0.0239091031
booster[207]:
0:[f12<0.474999994] yes=1,no=2,missing=1
	1:[f2<39.4700012] yes=3,no=4,missing=3
		3:leaf=0.0455842689
		4:leaf=-0.0199993756
	2:leaf=-0.0302543156
booster[208]:
0:[f6<491.5] yes=1,no=2,missing=1
	1:[f12<0.644999981] yes=3,no=4,missing=3
		3:leaf=-0.0378556885
		4:leaf=0.00307605416
	2:leaf=0.0256450884
booster[209]:
0:[f11<328] yes=1,no=2,missing=1
	1:leaf=-0.0308672246
	2:leaf=0.0213388819
booster[210]:
0:[f15<0.5] yes=1,no=2,missing=1
	1:leaf=-0.0242943373
	2:[f14<41.5] yes=3,no=4,missing=3
		3:leaf=-0.0122565655
		4:[f10<3.5] yes=5,no=6,missing=5
			5:leaf=-0.00123824691
			6:leaf=0.0427574255
booster[211]:
0:[f5<5.88500023] yes=1,no=2,missing=1
	1:leaf=-0.0222808588
	2:leaf=0.0225025751
booster[212]:
0:[f7<417] yes=1,no=2,missing=1
	1:leaf=-0.0242852289
	2:leaf=0.0259788912
booster[213]:
0:[f15<0.5] yes=1,no=2,missing=1
	1:leaf=0.0282614995
	2:[f1<905] yes=3,no=4,missing=3
		3:leaf=-0.0454236344
		4:leaf=0.0143208513
booster[214]:
0:[f0<341] yes=1,no=2,missing=1
	1:leaf=-0.0309799649
	2:leaf=0.0201965179
booster[215]:
0:[f1<710.5] yes=1,no=2,missing=1
	1:[f0<179.5] yes=3,no=4,missing=3
		3:[f2<36.5449982] yes=5,no=6,missing=5
			5:leaf=-0.032837417
			6:leaf=0.0255414993
		4:leaf=0.0452875495
	2:leaf=-0.0270924326
booster[216]:
0:[f5<5.88500023] yes=1,no=2,missing=1
	1:leaf=-0.0205299184
	2:leaf=0.0205385964
booster[217]:
0:[f7<417] yes=1,no=2,missing=1
	1:leaf=-0.0231130179
	2:leaf=0.0232395381
booster[218]:
0:[f3<10.5699997] yes=1,no=2,missing=1
	1:leaf=0.0240585189
	2:leaf=-0.0243682116
booster[219]:
0:[f12<3.7249999] yes=1,no=2,missing=1
	1:leaf=-0.0254198462
	2:leaf=0.0252351109
booster[220]:
0:[f1<710.5] yes=1,no=2,missing=1
	1:[f5<1.67499995] yes=3,no=4,missing=3
		3:leaf=-0.0133881746
		4:[f2<27.0099983] yes=5,no=6,missing=5
			5:leaf=0.0490497984
			6:leaf=-0.00361753535
	2:leaf=-0.0248580184
booster[221]:
0:[f7<413.5] yes=1,no=2,missing=1
	1:[f11<381] yes=3,no=4,missing=3
		3:leaf=-0.0435548238
		4:leaf=0.0264507309
	2:leaf=0.0278158337
booster[222]:
0:[f3<24.5649986] yes=1,no=2,missing=1
	1:[f3<21.1599998] yes=3,no=4,missing=3
		3:leaf=0.0235331748
		4:leaf=-0.0544380285
	2:leaf=0.0291755367
booster[223]:
0:[f11<64.5] yes=1,no=2,missing=1
	1:leaf=-0.024432471
	2:leaf=0.0224505216
booster[224]:
0:[f3<58.1699982] yes=1,no=2,missing=1
	1:leaf=-0.0244549792
	2:leaf=0.0242739618
booster[225]:
0:[f10<2.5] yes=1,no=2,missing=1
	1:leaf=-0.0230319425
	2:[f1<505] yes=3,no=4,missing=3
		3:leaf=0.044386059
		4:leaf=-0.0197726469
booster[226]:
0:[f5<5.88500023] yes=1,no=2,missing=1
	1:leaf=-0.0199520346
	2:leaf=0.0204142574
booster[227]:
0:[f7<417] yes=1,no=2,missing=1
	1:leaf=-0.0229369253
	2:leaf=0.0219237227
booster[228]:
0:[f15<0.5] yes=1,no=2,missing=1
	1:leaf=0.0260946676
	2:[f6<497] yes=3,no=4,missing=3
		3:leaf=-0.0417366214
		4:leaf=0.0126672918
booster[229]:
0:[f0<341] yes=1,no=2,missing=1
	1:leaf=-0.0279070232
	2:leaf=0.021071611
booster[230]:
0:[f3<10.0050001] yes=1,no=2,missing=1
	1:leaf=-0.0241118148
	2:[f12<0.335000008] yes=3,no=4,missing=3
		3:leaf=0.038275741
		4:leaf=-0.0156742372
booster[231]:
0:[f2<31.3849983] yes=1,no=2,missing=1
	1:leaf=0.0227695331
	2:leaf=-0.0182833821
booster[232]:
0:[f12<0.474999994] yes=1,no=2,missing=1
	1:[f2<37.0349998] yes=3,no=4,missing=3
		3:leaf=0.0398953483
		4:leaf=-0.0146694342
	2:leaf=-0.0271278825
booster[233]:
0:[f3<10.5699997] yes=1,no=2,missing=1
	1:leaf=0.0213900581
	2:leaf=-0.023735458
booster[234]:
0:[f11<328] yes=1,no=2,missing=1
	1:leaf=-0.0260910336
	2:leaf=0.02128697
booster[235]:
0:[f14<41.5] yes=1,no=2,missing=1
	1:leaf=-0.0215980131
	2:[f12<0.36500001] yes=3,no=4,missing=3
		3:leaf=0.0365090296
		4:leaf=-0.0161541104
booster[236]:
0:[f5<5.88500023] yes=1,no=2,missing=1
	1:leaf=-0.0204017963
	2:leaf=0.0197664052
booster[237]:
0:[f11<12.5] yes=1,no=2,missing=1
	1:leaf=0.0239281114
	2:leaf=-0.0213332996
booster[238]:
0:[f11<64.5] yes=1,no=2,missing=1
	1:leaf=-0.0246569365
	2:leaf=0.0207409151
booster[239]:
0:[f0<341] yes=1,no=2,missing=1
	1:leaf=-0.0262892656
	2:leaf=0.019347176
booster[240]:
0:[f10<2.5] yes=1,no=2,missing=1
	1:leaf=-0.0210142061
	2:[f1<505] yes=3,no=4,missing=3
		3:leaf=0.0401885286
		4:leaf=-0.0175641384
booster[241]:
0:[f2<31.3849983] yes=1,no=2,missing=1
	1:leaf=0.0211794786
	2:leaf=-0.017866658
booster[242]:
0:[f7<417] yes=1,no=2,missing=1
	1:leaf=-0.0213529803
	2:leaf=0.0221639499
booster[243]:
0:[f15<0.5] yes=1,no=2,missing=1
	1:leaf=0.0239619184
	2:[f11<64.5] yes=3,no=4,missing=3
		3:leaf=-0.0405622274
		4:leaf=0.00853500608
booster[244]:
0:[f12<3.30499983] yes=1,no=2,missing=1
	1:leaf=-0.0230259411
	2:leaf=0.022420235
booster[245]:
0:[f0<199] yes=1,no=2,missing=1
	1:[f2<33.7900009] yes=3,no=4,missing=3
		3:leaf=-0.0331287123
		4:leaf=0.015530685
	2:leaf=0.0195756331
booster[246]:
0:[f4<4.75500011] yes=1,no=2,missing=1
	1:leaf=-0.0231030397
	2:[f1<1232.5] yes=3,no=4,missing=3
		3:leaf=0.0294789393
		4:leaf=-0.00252444274
booster[247]:
0:[f11<12.5] yes=1,no=2,missing=1
	1:leaf=0.0222433861
	2:leaf=-0.0186008345
booster[248]:
0:[f7<136.5] yes=1,no=2,missing=1
	1:leaf=0.0200937185
	2:leaf=-0.0233034119
booster[249]:
0:[f0<341] yes=1,no=2,missing=1
	1:leaf=-0.0247232188
	2:leaf=0.0190747473
